svm_type c_svc
kernel_type rbf
gamma 0.142857
nr_class 7
total_sv 14089
rho 0.0652421 0.0266188 -0.00521737 0.00882529 -0.0118396 -0.000136644 -0.0135031 -0.0148542 0.00799218 0.00591162 0.000552088 -0.018708 -0.0144394 0.0298592 0.0115808 -0.0203007 0.0112105 0.0226641 0.0438715 0.0163691 0.0283737
label 0 1 2 3 4 5 6
nr_sv 1442 2746 2481 2249 2094 2050 1027
SV
1 0 0 0 0 0 1:0.638598 2:0.661088 3:0.665615 4:0.679109 5:0.688227 6:0.963515 7:0.666955 
1 0 0 0 0 0 1:0.630264 2:0.649095 3:0.657218 4:0.676334 5:0.69038 6:0.97757 7:0.69932 
1 1 1 1 1 0 1:0.624838 2:0.649796 3:0.650263 4:0.661181 5:0.664235 6:0.77287 7:0.547437 
1 0 0 0 0 0 1:0.636553 2:0.659141 3:0.66137 4:0.675245 5:0.682042 6:0.952533 7:0.630408 
1 1 1 1 1 0.2603554036065782 1:0.628271 2:0.650692 3:0.652866 4:0.666508 5:0.675586 6:0.734921 7:0.596659 
1 0 0 0 0 0 1:0.629778 2:0.652573 3:0.654041 4:0.665756 5:0.673822 6:0.941146 7:0.705446 
1 0 0 0 0 0 1:0.622584 2:0.641619 3:0.647494 4:0.662663 5:0.677217 6:1.018132 7:0.701659 
1 0 0 0 0 0 1:0.61905 2:0.636989 3:0.644774 4:0.663217 5:0.678705 6:1.025146 7:0.711739 
1 0 0 0 0 0 1:0.624344 2:0.643517 3:0.649193 4:0.663455 5:0.677809 6:0.981614 7:0.704223 
1 0 0 0 0 0 1:0.628418 2:0.644743 3:0.653729 4:0.680067 5:0.699467 6:0.966967 7:0.802408 
1 0 0 0 0 0 1:0.63854 2:0.655905 3:0.663453 4:0.6887 5:0.707371 6:0.933138 7:0.830589 
1 0 0 0 0 0 1:0.640543 2:0.661117 3:0.666699 4:0.686196 5:0.703074 6:0.892238 7:0.820531 
1 0 0 0 0 0 1:0.628637 2:0.645671 3:0.653007 4:0.676217 5:0.695477 6:0.969539 7:0.7884 
1 0 0 0 0 0 1:0.635486 2:0.656619 3:0.662127 4:0.687871 5:0.702914 6:0.933869 7:0.780355 
1 0 0 0 0 0 1:0.610371 2:0.623436 3:0.63135 4:0.657403 5:0.676366 6:0.979759 7:0.792399 
1 0 0 0 0 0 1:0.634496 2:0.654534 3:0.662077 4:0.682605 5:0.698044 6:0.858082 7:0.806063 
1 0 0 0 0 0 1:0.621926 2:0.639637 3:0.64818 4:0.670945 5:0.685666 6:0.877868 7:0.71945 
1 0 0 0 0 0 1:0.623919 2:0.640467 3:0.64947 4:0.675227 5:0.692179 6:0.906427 7:0.797987 
1 0 0 0 0 0 1:0.622755 2:0.64412 3:0.64713 4:0.663355 5:0.677434 6:1.015339 7:0.738658 
1 0 0 0 0 0 1:0.63784 2:0.658363 3:0.660711 4:0.676832 5:0.689524 6:0.980165 7:0.7548 
1 0 0 0 0 0 1:0.623488 2:0.641528 3:0.645639 4:0.665462 5:0.680331 6:0.97259 7:0.758417 
1 0 0 0 0 0 1:0.635799 2:0.654789 3:0.658034 4:0.675888 5:0.692903 6:0.943798 7:0.824863 
1 0 0 0 0 0 1:0.614756 2:0.631509 3:0.636702 4:0.658138 5:0.673611 6:0.975243 7:0.715763 
1 0 0 0 0 0 1:0.619172 2:0.635477 3:0.640709 4:0.662426 5:0.679312 6:0.971001 7:0.772074 
1 0 0 0 0 0 1:0.631054 2:0.650443 3:0.656389 4:0.670267 5:0.684938 6:0.994471 7:0.74163 
1 0 0 0 0 0 1:0.629755 2:0.649278 3:0.654475 4:0.669044 5:0.682425 6:0.993809 7:0.693651 
1 0 0 0 0 0 1:0.630058 2:0.649968 3:0.653903 4:0.668844 5:0.681928 6:0.981053 7:0.728922 
1 0 0 0 0 0 1:0.62844 2:0.647797 3:0.652132 4:0.665221 5:0.677962 6:0.996559 7:0.69438 
1 0 0 0 0 0 1:0.63158 2:0.653541 3:0.661023 4:0.681679 5:0.700046 6:0.879936 7:0.937821 
1 0 0 0 0 0 1:0.639375 2:0.659532 3:0.668561 4:0.692666 5:0.711016 6:0.862373 7:0.842402 
1 0 0 0 0 0 1:0.625166 2:0.64612 3:0.650212 4:0.667539 5:0.678132 6:0.9766 7:0.62439 
1 0 0 0 0 0 1:0.605995 2:0.622418 3:0.628289 4:0.648734 5:0.660802 6:0.959469 7:0.640802 
1 0 0 0 0 0 1:0.632927 2:0.653926 3:0.657845 4:0.675348 5:0.686452 6:0.960307 7:0.662523 
1 0 0 0 0 0 1:0.609054 2:0.625277 3:0.631558 4:0.654205 5:0.668799 6:0.988399 7:0.710791 
1 0 0 0 0 0 1:0.628641 2:0.650001 3:0.652545 4:0.671532 5:0.681268 6:0.92083 7:0.65794 
1 0 0 0 0 0 1:0.630118 2:0.649518 3:0.653803 4:0.673336 5:0.689865 6:0.974323 7:0.806229 
1 0 0 0 0 0 1:0.609635 2:0.625038 3:0.631264 4:0.654414 5:0.668838 6:1.000529 7:0.709246 
1 0 0 0 0 0 1:0.639452 2:0.662888 3:0.665126 4:0.681994 5:0.69531 6:0.83616 7:0.76622 
1 1 0 0 0 0 1:0.636078 2:0.658156 3:0.661325 4:0.678498 5:0.691455 6:0.76968 7:0.748669 
1 0 0 0 0 0 1:0.63774 2:0.65958 3:0.662258 4:0.680936 5:0.696956 6:0.895584 7:0.919842 
1 0 0 0 0 0 1:0.621015 2:0.638912 3:0.643431 4:0.661919 5:0.677484 6:1.022091 7:0.746348 
1 0 0 0 0 0 1:0.636084 2:0.656402 3:0.660415 4:0.679167 5:0.695574 6:0.959267 7:0.733363 
1 0 0 0 0 0 1:0.620042 2:0.638304 3:0.643536 4:0.662699 5:0.678639 6:0.998689 7:0.686994 
0.7626351960538196 0 0 0 0 0 1:0.628379 2:0.648235 3:0.655167 4:0.672573 5:0.688128 6:1.005087 7:0.751613 
1 0 0 0 0 0 1:0.626731 2:0.645905 3:0.65228 4:0.673392 5:0.689456 6:0.904276 7:0.786023 
1 0 0 0 0 0 1:0.62776 2:0.647385 3:0.651587 4:0.669092 5:0.681095 6:0.99418 7:0.725832 
1 0 0 0 0 0 1:0.622448 2:0.64049 3:0.647053 4:0.670021 5:0.685811 6:0.935549 7:0.713778 
1 0 0 0 0 0 1:0.625333 2:0.644855 3:0.650702 4:0.671244 5:0.684793 6:0.938224 7:0.736583 
1 0 0 0 0 0 1:0.623824 2:0.641596 3:0.64869 4:0.67111 5:0.686551 6:0.885459 7:0.709701 
1 0 0 0 0 0 1:0.633433 2:0.65381 3:0.660446 4:0.678302 5:0.690073 6:0.931798 7:0.681933 
1 0 0 0 0 0 1:0.626741 2:0.643994 3:0.651731 4:0.671755 5:0.688129 6:0.941237 7:0.748119 
1 0 0 0 0 0 1:0.629795 2:0.649491 3:0.653966 4:0.669007 5:0.684259 6:0.999381 7:0.764613 
1 0 0 0 0 0 1:0.618371 2:0.636564 3:0.641058 4:0.655868 5:0.66998 6:0.975542 7:0.725942 
1 0 0 0 0 0 1:0.61933 2:0.639206 3:0.642052 4:0.658544 5:0.67022 6:0.920125 7:0.702205 
1 0 0 0 0 0 1:0.618792 2:0.637926 3:0.640449 4:0.657875 5:0.670709 6:0.91261 7:0.689406 
1 0 0 0 0 0 1:0.629853 2:0.649021 3:0.657665 4:0.678625 5:0.69588 6:0.855619 7:0.77017 
1 0 0 0 0 0 1:0.624397 2:0.641258 3:0.649491 4:0.669244 5:0.688873 6:0.917049 7:0.758028 
1 0 0 0 0 0 1:0.632386 2:0.651982 3:0.657458 4:0.675925 5:0.690683 6:0.90172 7:0.810788 
1 0 0 0 0 0 1:0.625592 2:0.64481 3:0.652764 4:0.675261 5:0.693615 6:0.918169 7:0.830433 
1 0 0 0 0 0 1:0.632231 2:0.64916 3:0.657943 4:0.680752 5:0.701629 6:0.880783 7:0.83699 
1 0 0 0 0 0 1:0.63469 2:0.655619 3:0.659384 4:0.67589 5:0.687633 6:0.838947 7:0.717218 
1 0 0 0 0 0 1:0.635615 2:0.654962 3:0.661964 4:0.678797 5:0.694248 6:0.94421 7:0.819656 
1 0 0 0 0 0 1:0.617969 2:0.635804 3:0.640082 4:0.657062 5:0.671566 6:0.865397 7:0.742938 
1 0 0 0 0 0 1:0.637635 2:0.657091 3:0.661106 4:0.678597 5:0.692678 6:0.937275 7:0.788512 
1 0 0 0 0 0 1:0.618312 2:0.634967 3:0.639624 4:0.657706 5:0.673395 6:0.973544 7:0.762856 
1 0 0 0 0 0 1:0.634777 2:0.654628 3:0.659422 4:0.67285 5:0.686714 6:0.945148 7:0.752929 
1 1 0 0 0 0 1:0.623161 2:0.64547 3:0.649082 4:0.662694 5:0.675202 6:0.808061 7:0.672933 
1 0 0 0 0 0 1:0.619734 2:0.639744 3:0.644584 4:0.658411 5:0.67087 6:0.909256 7:0.67788 
1 0 0 0 0 0 1:0.623636 2:0.647369 3:0.651472 4:0.661047 5:0.670459 6:0.897861 7:0.657882 
1 1 1 0 0 0 1:0.608892 2:0.626942 3:0.633055 4:0.648992 5:0.662494 6:0.82451 7:0.63669 
1 0 0 0 0 0 1:0.6299 2:0.650783 3:0.654178 4:0.668865 5:0.680448 6:0.931365 7:0.685382 
1 1 0 0 0 0 1:0.622647 2:0.643869 3:0.646711 4:0.661216 5:0.672809 6:0.866207 7:0.615601 
1 0 0 0 0 0 1:0.619061 2:0.641033 3:0.645514 4:0.660117 5:0.67111 6:0.92726 7:0.687593 
1 1 1 1 0 0 1:0.613262 2:0.632061 3:0.636234 4:0.651733 5:0.662102 6:0.78523 7:0.599476 
1 0 0 0 0 0 1:0.626755 2:0.647624 3:0.651622 4:0.665526 5:0.679635 6:0.901867 7:0.729073 
1 1 0 0 0 0 1:0.625394 2:0.64678 3:0.652137 4:0.664478 5:0.677888 6:0.796965 7:0.672037 
1 0 0 0 0 0 1:0.623447 2:0.645017 3:0.652016 4:0.666078 5:0.677568 6:0.970552 7:0.669898 
1 1 1 0 0 0 1:0.613776 2:0.63109 3:0.637592 4:0.651916 5:0.666816 6:0.781771 7:0.659977 
1 0 0 0 0 0 1:0.629204 2:0.651026 3:0.655049 4:0.666433 5:0.679808 6:0.914474 7:0.705415 
1 0 0 0 0 0 1:0.625557 2:0.642994 3:0.651818 4:0.671854 5:0.68942 6:0.979428 7:0.762579 
1 0 0 0 0 0 1:0.630607 2:0.652639 3:0.658877 4:0.672259 5:0.687198 6:0.922008 7:0.716211 
1 0 0 0 0 0 1:0.613207 2:0.630982 3:0.636858 4:0.651486 5:0.666153 6:0.926225 7:0.688228 
1 1 0 0 0 0 1:0.632824 2:0.656712 3:0.658996 4:0.671865 5:0.684498 6:0.783479 7:0.74275 
1 0 0 0 0 0 1:0.63495 2:0.658049 3:0.659829 4:0.670767 5:0.684587 6:0.941063 7:0.768098 
1 0 0 0 0 0 1:0.634589 2:0.659275 3:0.66179 4:0.672236 5:0.684005 6:0.932395 7:0.76249 
1 0 0 0 0 0 1:0.635268 2:0.656391 3:0.663364 4:0.676341 5:0.695208 6:0.948293 7:0.876478 
1 0 0 0 0 0 1:0.639648 2:0.660289 3:0.667235 4:0.687145 5:0.713131 6:0.784654 7:1.279985 
1 0 0 0 0 0 1:0.640082 2:0.658019 3:0.667917 4:0.69037 5:0.717608 6:0.766509 7:1.1087 
1 0 0 0 0 0 1:0.634438 2:0.655531 3:0.660192 4:0.675607 5:0.688654 6:0.992148 7:0.667914 
1 0 0 0 0 0 1:0.618247 2:0.638437 3:0.642794 4:0.659948 5:0.671859 6:0.978847 7:0.610366 
1 0 0 0 0 0 1:0.623869 2:0.642898 3:0.64945 4:0.666773 5:0.680863 6:1.0063 7:0.677937 
1 0 0 0 0 0 1:0.635584 2:0.656426 3:0.660486 4:0.676683 5:0.688613 6:0.985988 7:0.653926 
1 0 0 0 0 0 1:0.635016 2:0.655365 3:0.657476 4:0.673388 5:0.685337 6:0.9951 7:0.736372 
1 0 0 0 0 0 1:0.619007 2:0.636829 3:0.641098 4:0.65998 5:0.676249 6:0.907017 7:0.737836 
1 0 0 0 0 0 1:0.626208 2:0.644721 3:0.649965 4:0.668927 5:0.682173 6:0.994208 7:0.679599 
1 0 0 0 0 0 1:0.622061 2:0.638972 3:0.644749 4:0.66446 5:0.681056 6:1.014495 7:0.736615 
1 0 0 0 0 0 1:0.632599 2:0.651015 3:0.656493 4:0.680541 5:0.698059 6:0.929086 7:0.795054 
1 0 0 0 0 0 1:0.625309 2:0.64452 3:0.648324 4:0.673927 5:0.68299 6:1.003191 7:0.671995 
1 0 0 0 0 0 1:0.619003 2:0.633761 3:0.642102 4:0.669881 5:0.69059 6:0.98416 7:0.787892 
1 0 0 0 0 0 1:0.619004 2:0.633785 3:0.641233 4:0.664005 5:0.682227 6:0.94317 7:0.729093 
1 0 0 0 0 0 1:0.619556 2:0.643032 3:0.64516 4:0.660429 5:0.671922 6:0.896833 7:0.768419 
1 0 0 0 0 0 1:0.638917 2:0.663047 3:0.666773 4:0.6808 5:0.694726 6:0.923319 7:0.799077 
1 0 0 0 0 0 1:0.638136 2:0.65962 3:0.665247 4:0.684656 5:0.698855 6:0.929164 7:0.757408 
1 0 0 0 0 0 1:0.637738 2:0.658026 3:0.662373 4:0.674808 5:0.687996 6:0.997159 7:0.65638 
1 0 0 0 0 0 1:0.616536 2:0.634749 3:0.639672 4:0.654269 5:0.669962 6:0.991809 7:0.671657 
1 0 0 0 0 0 1:0.624074 2:0.641611 3:0.647406 4:0.66681 5:0.684487 6:0.948502 7:0.743833 
1 0 0 0 0 0 1:0.638516 2:0.65918 3:0.6631 4:0.676336 5:0.69053 6:0.968137 7:0.733855 
1 0 0 0 0 0 1:0.625953 2:0.64458 3:0.649412 4:0.664139 5:0.679586 6:0.956875 7:0.706283 
1 0 0 0 0 0 1:0.614613 2:0.632652 3:0.640806 4:0.662994 5:0.677439 6:1.023232 7:0.730128 
1 0 0 0 0 0 1:0.637091 2:0.656729 3:0.661984 4:0.683414 5:0.699361 6:0.951515 7:0.80601 
1 0 0 0 0 0 1:0.62376 2:0.639691 3:0.647842 4:0.671562 5:0.691114 6:0.986189 7:0.7903 
1 0 0 0 0 0 1:0.627641 2:0.647037 3:0.653396 4:0.675266 5:0.69119 6:0.896377 7:0.712511 
1 0 0 0 0 0 1:0.61882 2:0.637519 3:0.643575 4:0.663948 5:0.678477 6:0.900528 7:0.660573 
1 0 0 0 0 0 1:0.636551 2:0.655073 3:0.661155 4:0.681824 5:0.700121 6:0.956846 7:0.830546 
1 0 0 0 0 0 1:0.629023 2:0.648143 3:0.653607 4:0.67404 5:0.691706 6:0.951781 7:0.783179 
1 0 0 0 0 0 1:0.615937 2:0.63304 3:0.639094 4:0.658001 5:0.675754 6:0.903247 7:0.725639 
1 0 0 0 0 0 1:0.623312 2:0.642453 3:0.646579 4:0.665269 5:0.679426 6:0.934286 7:0.695972 
1 0 0 0 0 0 1:0.60894 2:0.62529 3:0.630999 4:0.652138 5:0.669486 6:0.951819 7:0.720828 
1 0 0 0 0 0 1:0.62098 2:0.638888 3:0.644759 4:0.667215 5:0.682297 6:0.9352 7:0.685293 
1 0 0 0 0 0 1:0.619717 2:0.639859 3:0.641315 4:0.65624 5:0.66686 6:1.039618 7:0.606935 
1 0 0 0 0 0 1:0.602146 2:0.617096 3:0.62523 4:0.650643 5:0.668688 6:0.94093 7:0.694743 
1 0 0 0 0 0 1:0.629614 2:0.648381 3:0.652079 4:0.674562 5:0.68978 6:0.889607 7:0.763596 
1 0 0 0 0 0 1:0.629672 2:0.6488 3:0.650452 4:0.66883 5:0.680522 6:1.016137 7:0.684848 
1 0 0 0 0 0 1:0.609494 2:0.625794 3:0.631378 4:0.654509 5:0.670635 6:0.946176 7:0.716347 
1 0 0 0 0 0 1:0.627754 2:0.645734 3:0.652249 4:0.676463 5:0.692811 6:0.990114 7:0.785499 
1 0 0 0 0 0 1:0.609685 2:0.625063 3:0.633412 4:0.658312 5:0.676902 6:0.978452 7:0.773216 
1 0 0 0 0 0 1:0.624338 2:0.641334 3:0.647209 4:0.675088 5:0.692574 6:0.969048 7:0.766783 
1 0 0 0 0 0 1:0.609416 2:0.625589 3:0.631332 4:0.658915 5:0.676351 6:0.971178 7:0.720665 
1 0 0 0 0 0 1:0.624147 2:0.6428 3:0.649637 4:0.673807 5:0.689838 6:1.000951 7:0.718389 
1 0 0 0 0 0 1:0.611461 2:0.628455 3:0.635997 4:0.659693 5:0.674298 6:0.914845 7:0.690562 
1 0 0 0 0 0 1:0.63384 2:0.6527 3:0.658479 4:0.681031 5:0.697309 6:0.984426 7:0.755645 
1 0 0 0 0 0 1:0.610102 2:0.625461 3:0.633044 4:0.657511 5:0.676156 6:1.043967 7:0.756586 
1 0 0 0 0 0 1:0.620503 2:0.639402 3:0.645046 4:0.669637 5:0.684381 6:0.981019 7:0.711208 
1 0 0 0 0 0 1:0.632046 2:0.654897 3:0.655913 4:0.673925 5:0.679125 6:0.951917 7:0.566394 
1 0 0 0 0 0 1:0.635825 2:0.653233 3:0.662352 4:0.681161 5:0.699221 6:0.985532 7:0.732311 
1 0 0 0 0 0 1:0.623176 2:0.639838 3:0.645353 4:0.665314 5:0.682805 6:1.01676 7:0.766269 
1 0 0 0 0 0 1:0.638348 2:0.658043 3:0.661535 4:0.680566 5:0.694838 6:0.933208 7:0.771327 
1 0 0 0 0 0 1:0.639479 2:0.66016 3:0.662687 4:0.676979 5:0.69061 6:0.943275 7:0.771396 
1 0 0 0 0 0 1:0.62622 2:0.641598 3:0.649122 4:0.671239 5:0.690548 6:0.974517 7:0.787815 
1 0 0 0 0 0 1:0.639735 2:0.658267 3:0.662147 4:0.684126 5:0.700329 6:0.926958 7:0.776406 
1 0 0 0 0 0 1:0.62867 2:0.654499 3:0.656896 4:0.670311 5:0.685211 6:0.864868 7:0.802171 
1 0 0 0 0 0 1:0.634105 2:0.655949 3:0.658138 4:0.671525 5:0.682211 6:0.903268 7:0.657014 
1 0 0 0 0 0 1:0.627413 2:0.650392 3:0.652053 4:0.664675 5:0.673342 6:0.891603 7:0.666723 
1 0 0 0 0 0 1:0.629889 2:0.648906 3:0.653101 4:0.66909 5:0.681459 6:0.948936 7:0.616751 
1 0 0 0 0 0 1:0.634247 2:0.655191 3:0.656675 4:0.673009 5:0.684821 6:0.90881 7:0.716025 
1 0 0 0 0 0 1:0.627186 2:0.648766 3:0.651005 4:0.665723 5:0.674617 6:0.894002 7:0.697688 
1 1 0 0 0 0 1:0.628514 2:0.647888 3:0.651257 4:0.666811 5:0.680488 6:0.860911 7:0.652014 
1 0 0 0 0 0 1:0.631317 2:0.652938 3:0.655461 4:0.66962 5:0.682024 6:0.919565 7:0.697969 
1 0 0 0 0 0 1:0.63177 2:0.653891 3:0.655973 4:0.668884 5:0.67711 6:0.945915 7:0.660622 
1 1 0 0 0 0 1:0.630363 2:0.648658 3:0.652611 4:0.670045 5:0.683381 6:0.834033 7:0.676983 
1 0 0 0 0 0 1:0.631257 2:0.653941 3:0.65277 4:0.666661 5:0.677379 6:0.928854 7:0.673016 
1 0 0 0 0 0 1:0.628882 2:0.651871 3:0.651917 4:0.660071 5:0.667168 6:1.029945 7:0.612231 
1 0 0 0 0 0 1:0.630227 2:0.650683 3:0.652175 4:0.670383 5:0.683756 6:0.869503 7:0.678469 
1 0 0 0 0 0 1:0.632583 2:0.654624 3:0.654578 4:0.669259 5:0.679875 6:0.880114 7:0.766508 
1 1 0 0 0 0 1:0.633891 2:0.656806 3:0.65703 4:0.670873 5:0.68105 6:0.802333 7:0.676343 
1 0 0 0 0 0 1:0.609063 2:0.633058 3:0.630096 4:0.633831 5:0.643898 6:1.008766 7:0.557885 
1 1 1 0 0 0 1:0.623673 2:0.645354 3:0.647079 4:0.663062 5:0.673371 6:0.812314 7:0.61892 
1 0 0 0 0 0 1:0.635773 2:0.655872 3:0.657695 4:0.675547 5:0.688174 6:0.952246 7:0.787396 
1 1 0 0 0 0 1:0.62942 2:0.651762 3:0.651478 4:0.665007 5:0.674784 6:0.842308 7:0.678762 
1 0 0 0 0 0 1:0.630369 2:0.652735 3:0.651962 4:0.661844 5:0.669426 6:1.03891 7:0.606128 
1 1 1 0 0 0 1:0.621367 2:0.642612 3:0.642642 4:0.656654 5:0.665267 6:0.858967 7:0.561277 
1 0 0 0 0 0 1:0.613159 2:0.629991 3:0.634058 4:0.653557 5:0.669544 6:1.007925 7:0.615908 
1 0 0 0 0 0 1:0.633967 2:0.650112 3:0.657182 4:0.678988 5:0.700488 6:0.961094 7:0.797903 
1 0 0 0 0 0 1:0.6265 2:0.644178 3:0.650915 4:0.675905 5:0.692098 6:0.936969 7:0.768749 
1 0 0 0 0 0 1:0.624392 2:0.643672 3:0.648296 4:0.671113 5:0.683998 6:0.910165 7:0.772032 
1 0 0 0 0 0 1:0.620032 2:0.641447 3:0.647934 4:0.67067 5:0.683434 6:0.977306 7:0.648583 
1 0 0 0 0 0 1:0.622193 2:0.641876 3:0.648292 4:0.670213 5:0.684634 6:0.867151 7:0.730743 
1 0 0 0 0 0 1:0.627013 2:0.646382 3:0.65357 4:0.673961 5:0.690749 6:0.883213 7:0.833737 
1 1 0 0 0 0 1:0.626432 2:0.647228 3:0.652548 4:0.672125 5:0.686044 6:0.815024 7:0.737697 
1 0 0 0 0 0 1:0.625363 2:0.650993 3:0.651416 4:0.666192 5:0.674483 6:0.919004 7:0.636404 
1 1 0 0 0 0 1:0.627343 2:0.649865 3:0.652605 4:0.673801 5:0.685852 6:0.851897 7:0.650075 
1 0 0 0 0 0 1:0.621233 2:0.645951 3:0.645974 4:0.661181 5:0.668006 6:1.009974 7:0.666121 
1 0 0 0 0 0 1:0.62514 2:0.6505 3:0.649636 4:0.665377 5:0.675144 6:0.928545 7:0.74771 
1 0 0 0 0 0 1:0.631722 2:0.653258 3:0.655102 4:0.676302 5:0.689275 6:0.913222 7:0.721144 
1 0 0 0 0 0 1:0.622759 2:0.648193 3:0.64917 4:0.664561 5:0.672699 6:0.965055 7:0.658869 
1 0 0 0 0 0 1:0.62957 2:0.651668 3:0.654565 4:0.677097 5:0.688113 6:0.92188 7:0.660557 
1 0 0 0 0 0 1:0.634054 2:0.656736 3:0.657319 4:0.665058 5:0.674308 6:0.957588 7:0.638972 
1 0 0 0 0 0 1:0.625626 2:0.646037 3:0.651628 4:0.664866 5:0.679801 6:0.944275 7:0.612189 
1 0 0 0 0 0 1:0.626621 2:0.648024 3:0.652804 4:0.664816 5:0.676309 6:1.013982 7:0.736355 
1 0 0 0 0 0 1:0.621431 2:0.642795 3:0.645761 4:0.660579 5:0.671218 6:0.915013 7:0.672955 
1 0 0 0 0 0 1:0.630543 2:0.652981 3:0.657867 4:0.670367 5:0.68614 6:0.908892 7:0.598856 
1 1 0 0 0 0 1:0.621359 2:0.641113 3:0.646328 4:0.663027 5:0.672744 6:0.86668 7:0.597146 
1 0 0 0 0 0 1:0.628758 2:0.649233 3:0.652931 4:0.665602 5:0.676615 6:0.985374 7:0.738579 
1 0 0 0 0 0 1:0.630422 2:0.651676 3:0.655005 4:0.667723 5:0.678686 6:0.898033 7:0.663264 
1 1 0 0 0 0 1:0.62293 2:0.641864 3:0.645877 4:0.660934 5:0.6745 6:0.883247 7:0.62015 
1 0 0 0 0 0 1:0.629336 2:0.650749 3:0.654641 4:0.666306 5:0.675566 6:1.001797 7:0.637861 
1 0 0 0 0 0 1:0.632203 2:0.653738 3:0.657501 4:0.678923 5:0.690958 6:0.958528 7:0.745884 
1 0 0 0 0 0 1:0.626793 2:0.643542 3:0.65282 4:0.674211 5:0.691982 6:0.973353 7:0.788987 
1 0 0 0 0 0 1:0.636071 2:0.656534 3:0.658736 4:0.67483 5:0.689184 6:0.988442 7:0.760082 
1 0 0 0 0 0 1:0.631666 2:0.650463 3:0.654235 4:0.671499 5:0.688592 6:0.90525 7:0.82808 
1 1 1 0 0 0 1:0.622651 2:0.640977 3:0.643346 4:0.659536 5:0.674146 6:0.750878 7:0.713361 
1 0 0 0 0 0 1:0.625629 2:0.645219 3:0.64998 4:0.668832 5:0.6848 6:0.84859 7:0.805316 
1 1 0 0 0 0 1:0.626043 2:0.646438 3:0.648706 4:0.662904 5:0.676321 6:0.816512 7:0.674599 
1 0 0 0 0 0 1:0.630457 2:0.64896 3:0.654181 4:0.674228 5:0.693431 6:0.91768 7:0.888136 
1 1 0 0 0 0 1:0.625546 2:0.645438 3:0.650185 4:0.66896 5:0.684744 6:0.822464 7:0.753182 
1 0 0 0 0 0 1:0.628362 2:0.646679 3:0.652655 4:0.670491 5:0.685337 6:0.97949 7:0.827854 
1 0 0 0 0 0 1:0.607629 2:0.622213 3:0.628309 4:0.648351 5:0.665441 6:0.991952 7:0.721093 
1 0 0 0 0 0 1:0.617428 2:0.634088 3:0.639776 4:0.658323 5:0.671846 6:1.002745 7:0.662049 
1 0 0 0 0 0 1:0.622538 2:0.639167 3:0.645585 4:0.664109 5:0.679433 6:1.008626 7:0.796745 
1 0 0 0 0 0 1:0.619716 2:0.637402 3:0.646204 4:0.669276 5:0.685885 6:0.929042 7:0.834785 
1 0 0 0 0 0 1:0.599001 2:0.613669 3:0.620406 4:0.639342 5:0.654427 6:1.083051 7:0.653316 
1 0 0 0 0 0 1:0.614475 2:0.630539 3:0.636474 4:0.656309 5:0.671865 6:1.030051 7:0.678541 
1 0 0 0 0 0 1:0.625899 2:0.642482 3:0.647914 4:0.666863 5:0.684455 6:0.989951 7:0.840705 
1 0 0 0 0 0 1:0.598847 2:0.6131 3:0.619473 4:0.638612 5:0.654773 6:1.073958 7:0.661882 
1 0 0 0 0 0 1:0.614662 2:0.633178 3:0.639169 4:0.65828 5:0.674384 6:0.976965 7:0.668599 
1 0 0 0 0 0 1:0.599237 2:0.613611 3:0.620867 4:0.641929 5:0.658545 6:1.049727 7:0.667082 
1 0 0 0 0 0 1:0.609787 2:0.626608 3:0.633469 4:0.654982 5:0.6729 6:1.012332 7:0.722707 
1 0 0 0 0 0 1:0.610451 2:0.627023 3:0.634045 4:0.655355 5:0.671106 6:0.980541 7:0.665713 
1 0 0 0 0 0 1:0.630559 2:0.647518 3:0.654623 4:0.672938 5:0.693368 6:0.963963 7:0.811665 
1 0 0 0 0 0 1:0.619051 2:0.634972 3:0.64167 4:0.659437 5:0.678975 6:0.99573 7:0.691084 
1 0 0 0 0 0 1:0.618334 2:0.63405 3:0.639869 4:0.657275 5:0.676604 6:0.999532 7:0.660683 
1 0 0 0 0 0 1:0.630922 2:0.647097 3:0.654016 4:0.673765 5:0.693905 6:0.996659 7:0.768191 
1 0 0 0 0 0 1:0.618326 2:0.634168 3:0.639533 4:0.657886 5:0.675896 6:1.003022 7:0.653238 
1 0 0 0 0 0 1:0.625847 2:0.646144 3:0.649165 4:0.66425 5:0.675292 6:0.948188 7:0.667282 
1 0 0 0 0 0 1:0.630149 2:0.653574 3:0.657287 4:0.674479 5:0.68646 6:0.961829 7:0.776978 
1 0 0 0 0 0 1:0.635512 2:0.655808 3:0.660572 4:0.679731 5:0.694096 6:0.971597 7:0.741467 
1 0 0 0 0 0 1:0.629489 2:0.650385 3:0.654815 4:0.669899 5:0.684063 6:0.967818 7:0.759883 
1 0 0 0 0 0 1:0.63081 2:0.65418 3:0.6586 4:0.672346 5:0.681478 6:1.017656 7:0.689307 
1 0 0 0 0 0 1:0.633728 2:0.656544 3:0.66326 4:0.677702 5:0.691719 6:0.939424 7:0.785155 
1 1 0 0 0 0 1:0.621181 2:0.642057 3:0.644414 4:0.658635 5:0.668879 6:0.888151 7:0.642702 
1 0 0 0 0 0 1:0.625354 2:0.646612 3:0.649715 4:0.666776 5:0.679268 6:0.821005 7:0.817739 
1 0 0 0 0 0 1:0.624277 2:0.648117 3:0.651931 4:0.665513 5:0.674322 6:0.986774 7:0.704529 
1 1 0 0 0 0 1:0.627188 2:0.64877 3:0.651337 4:0.66618 5:0.676382 6:0.820584 7:0.691922 
1 0 0 0 0 0 1:0.623855 2:0.643745 3:0.648693 4:0.668318 5:0.680967 6:0.943022 7:0.815652 
1 0 0 0 0 0 1:0.631902 2:0.653371 3:0.658596 4:0.676133 5:0.688686 6:0.992899 7:0.753697 
1 0 0 0 0 0 1:0.630724 2:0.654434 3:0.658237 4:0.671237 5:0.68067 6:0.951171 7:0.721951 
1 0 0 0 0 0 1:0.625696 2:0.645929 3:0.650934 4:0.667885 5:0.679759 6:1.009114 7:0.65967 
1 0 0 0 0 0 1:0.635478 2:0.65449 3:0.660248 4:0.677341 5:0.69623 6:0.932327 7:0.851519 
1 0 0 0 0 0 1:0.62992 2:0.652642 3:0.656847 4:0.671766 5:0.687482 6:0.934727 7:0.916135 
1 0 0 0 0 0 1:0.629968 2:0.652895 3:0.656157 4:0.675023 5:0.68756 6:0.835535 7:0.761571 
1 1 0 0 0 0 1:0.629193 2:0.651861 3:0.655589 4:0.67387 5:0.68721 6:0.780946 7:0.791165 
1 0 0 0 0 0 1:0.632005 2:0.655435 3:0.660099 4:0.674738 5:0.689847 6:0.850026 7:0.853124 
1 0 0 0 0 0 1:0.638074 2:0.660783 3:0.666245 4:0.686259 5:0.698124 6:0.983415 7:0.680125 
1 0 0 0 0 0 1:0.622925 2:0.641467 3:0.648737 4:0.670312 5:0.686269 6:1.012597 7:0.724239 
1 0 0 0 0 0 1:0.640905 2:0.662239 3:0.668484 4:0.684498 5:0.700778 6:0.919724 7:0.763331 
1 0 0 0 0 0 1:0.638875 2:0.661254 3:0.665555 4:0.67525 5:0.68974 6:0.982179 7:0.74905 
1 0 0 0 0 0 1:0.62739 2:0.646805 3:0.652522 4:0.670901 5:0.686015 6:0.989166 7:0.761811 
1 0 0 0 0 0 1:0.628126 2:0.646515 3:0.652707 4:0.671016 5:0.687263 6:0.970713 7:0.71395 
1 0 0 0 0 0 1:0.62191 2:0.639854 3:0.644704 4:0.664218 5:0.679088 6:0.997099 7:0.706373 
1 0 0 0 0 0 1:0.628237 2:0.647622 3:0.652274 4:0.670231 5:0.68634 6:1.008436 7:0.706203 
1 0 0 0 0 0 1:0.627807 2:0.646772 3:0.653933 4:0.673938 5:0.690993 6:0.962598 7:0.738894 
1 0 0 0 0 0 1:0.636298 2:0.657076 3:0.661387 4:0.679834 5:0.694132 6:0.926916 7:0.752513 
1 0 0 0 0 0 1:0.62677 2:0.645522 3:0.65107 4:0.670958 5:0.686493 6:0.896534 7:0.681593 
1 0 0 0 0 0 1:0.637468 2:0.659716 3:0.664616 4:0.682008 5:0.694971 6:0.934867 7:0.692249 
1 0 0 0 0 0 1:0.632008 2:0.651358 3:0.658054 4:0.67896 5:0.694225 6:0.916541 7:0.669683 
1 0 0 0 0 0 1:0.635125 2:0.658183 3:0.66021 4:0.674193 5:0.689999 6:0.881206 7:0.765089 
1 0 0 0 0 0 1:0.613852 2:0.626448 3:0.635918 4:0.661508 5:0.685784 6:0.979291 7:0.849221 
1 0 0 0 0 0 1:0.630933 2:0.64819 3:0.65429 4:0.6784 5:0.699373 6:0.962683 7:0.845055 
1 0 0 0 0 0 1:0.605662 2:0.619831 3:0.62776 4:0.653384 5:0.673156 6:0.960813 7:0.772881 
1 0 0 0 0 0 1:0.625513 2:0.642729 3:0.649942 4:0.671696 5:0.691955 6:0.934482 7:0.823884 
1 0 0 0 0 0 1:0.606019 2:0.61978 3:0.628591 4:0.653296 5:0.675407 6:0.980947 7:0.803743 
1 0 0 0 0 0 1:0.614494 2:0.629391 3:0.634482 4:0.652381 5:0.669036 6:1.060327 7:0.720925 
1 0 0 0 0 0 1:0.635225 2:0.655537 3:0.660273 4:0.676399 5:0.690873 6:0.979469 7:0.726551 
1 0 0 0 0 0 1:0.63659 2:0.655711 3:0.657609 4:0.675242 5:0.691707 6:0.909589 7:0.777589 
1 0 0 0 0 0 1:0.619112 2:0.635357 3:0.640768 4:0.662036 5:0.67919 6:0.92382 7:0.760007 
1 0 0 0 0 0 1:0.630501 2:0.650951 3:0.651818 4:0.663929 5:0.678003 6:0.975602 7:0.668598 
1 1 0 0 0 0 1:0.620317 2:0.639602 3:0.640634 4:0.652071 5:0.666658 6:0.880505 7:0.657004 
1 0 0 0 0 0 1:0.633889 2:0.652319 3:0.656457 4:0.675379 5:0.692496 6:0.951595 7:0.78956 
1 0 0 0 0 0 1:0.615057 2:0.631181 3:0.635782 4:0.65372 5:0.67088 6:0.880694 7:0.755493 
1 0 0 0 0 0 1:0.611267 2:0.625263 3:0.635577 4:0.665207 5:0.689028 6:0.913076 7:0.88368 
1 0 0 0 0 0 1:0.633635 2:0.653553 3:0.657855 4:0.677443 5:0.690868 6:0.911101 7:0.729741 
1 0 0 0 0 0 1:0.64001 2:0.659181 3:0.662344 4:0.678819 5:0.696545 6:0.954227 7:0.754589 
1 0 0 0 0 0 1:0.641061 2:0.663298 3:0.666809 4:0.68065 5:0.69622 6:0.936477 7:0.812621 
1 0 0 0 0 0 1:0.633328 2:0.653271 3:0.658251 4:0.674238 5:0.689642 6:0.975069 7:0.757915 
1 0 0 0 0 0 1:0.627143 2:0.645645 3:0.648738 4:0.663909 5:0.679873 6:0.949854 7:0.740087 
1 0 0 0 0 0 1:0.627634 2:0.645995 3:0.649669 4:0.669859 5:0.685159 6:0.961822 7:0.755675 
1 0 0 0 0 0 1:0.612958 2:0.627159 3:0.634714 4:0.658656 5:0.679743 6:0.94609 7:0.775612 
1 0 0 0 0 0 1:0.616118 2:0.62998 3:0.636924 4:0.660789 5:0.68244 6:1.005983 7:0.776857 
1 0 0 0 0 0 1:0.63693 2:0.657219 3:0.658851 4:0.67169 5:0.684399 6:0.994989 7:0.716146 
1 0 0 0 0 0 1:0.635008 2:0.653723 3:0.659166 4:0.681708 5:0.694307 6:0.972882 7:0.646182 
1 0 0 0 0 0 1:0.628787 2:0.647278 3:0.651578 4:0.668964 5:0.684362 6:0.96896 7:0.735475 
1 0 0 0 0 0 1:0.621516 2:0.63978 3:0.643552 4:0.660221 5:0.675966 6:0.952996 7:0.725745 
1 0 0 0 0 0 1:0.609917 2:0.625313 3:0.631043 4:0.648936 5:0.667219 6:0.980341 7:0.745525 
1 0 0 0 0 0 1:0.621074 2:0.638778 3:0.643589 4:0.66141 5:0.678176 6:0.986692 7:0.75816 
1 0 0 0 0 0 1:0.61366 2:0.629601 3:0.634541 4:0.653218 5:0.670659 6:1.003679 7:0.743007 
1 0 0 0 0 0 1:0.609443 2:0.624756 3:0.632741 4:0.655756 5:0.667352 6:0.987855 7:0.632362 
1 0 0 0 0 0 1:0.628921 2:0.650526 3:0.652178 4:0.666754 5:0.678048 6:0.948028 7:0.613355 
1 1 0 0 0 0 1:0.627446 2:0.65055 3:0.650716 4:0.66009 5:0.668718 6:0.935584 7:0.559638 
1 1 1 1 0 0 1:0.624857 2:0.650638 3:0.647456 4:0.649789 5:0.65386 6:0.92323 7:0.400389 
1 0 0 0 0 0 1:0.624908 2:0.644163 3:0.648387 4:0.666133 5:0.678512 6:1.048505 7:0.599225 
1 0 0 0 0 0 1:0.620404 2:0.636933 3:0.641742 4:0.663375 5:0.678973 6:1.001948 7:0.715296 
1 0 0 0 0 0 1:0.642079 2:0.66378 3:0.664642 4:0.677882 5:0.690417 6:0.966836 7:0.771052 
1 0 0 0 0 0 1:0.621827 2:0.640045 3:0.642513 4:0.658969 5:0.67306 6:0.990206 7:0.702893 
1 0 0 0 0 0 1:0.638353 2:0.660383 3:0.662367 4:0.676526 5:0.688297 6:0.958274 7:0.75863 
1 0 0 0 0 0 1:0.627878 2:0.647378 3:0.649903 4:0.66602 5:0.678878 6:0.907286 7:0.692033 
1 0 0 0 0 0 1:0.632115 2:0.656038 3:0.655204 4:0.665648 5:0.673656 6:0.970427 7:0.717924 
1 1 1 1 0 0 1:0.617244 2:0.637729 3:0.63904 4:0.653263 5:0.662828 6:0.808518 7:0.570883 
1 0 0 0 0 0 1:0.628875 2:0.648379 3:0.65105 4:0.666027 5:0.679492 6:0.996852 7:0.700486 
1 1 0 0 0 0 1:0.609913 2:0.627016 3:0.629693 4:0.645314 5:0.658904 6:0.889238 7:0.607447 
1 0 0 0 0 0 1:0.620086 2:0.638259 3:0.641395 4:0.658371 5:0.672298 6:0.946268 7:0.637409 
1 1 0 0 0 0 1:0.615425 2:0.634493 3:0.638088 4:0.653892 5:0.668141 6:0.897062 7:0.643507 
1 0 0 0 0 0 1:0.626623 2:0.647236 3:0.650257 4:0.666453 5:0.678462 6:0.992196 7:0.680009 
1 1 0 0 0 0 1:0.61932 2:0.637821 3:0.640594 4:0.658007 5:0.670093 6:0.902737 7:0.626003 
1 1 0 0 0 0 1:0.610559 2:0.628151 3:0.631099 4:0.648841 5:0.6615 6:0.856177 7:0.613639 
1 0 0 0 0 0 1:0.62398 2:0.64265 3:0.646984 4:0.666772 5:0.680673 6:0.956382 7:0.680928 
1 1 0 0 0 0 1:0.602311 2:0.61875 3:0.620887 4:0.637352 5:0.649122 6:0.895885 7:0.575331 
1 0 0 0 0 0 1:0.624546 2:0.641984 3:0.646308 4:0.665312 5:0.680563 6:0.971346 7:0.67849 
1 0 0 0 0 0 1:0.635446 2:0.656497 3:0.659292 4:0.678129 5:0.691571 6:0.974966 7:0.788444 
1 0 0 0 0 0 1:0.630109 2:0.646805 3:0.65042 4:0.672055 5:0.688292 6:0.995956 7:0.723861 
1 1 0 0 0 0 1:0.628388 2:0.653415 3:0.654833 4:0.667938 5:0.677221 6:0.804684 7:0.715848 
1 0 0 0 0 0 1:0.628028 2:0.652272 3:0.652454 4:0.665811 5:0.674918 6:0.939812 7:0.6751 
1 1 0 0 0 0 1:0.627847 2:0.649066 3:0.653197 4:0.67208 5:0.686818 6:0.807557 7:0.741264 
1 0 0 0 0 0 1:0.633432 2:0.648548 3:0.656406 4:0.679355 5:0.702048 6:0.815088 7:0.979902 
1 0 0 0 0 0 1:0.6232 2:0.637506 3:0.647224 4:0.671862 5:0.693045 6:0.822092 7:0.893832 
1 0 0 0 0 0 1:0.630395 2:0.646849 3:0.654266 4:0.679809 5:0.700541 6:0.914833 7:0.877484 
1 0 0 0 0 0 1:0.625395 2:0.640154 3:0.647507 4:0.671925 5:0.692138 6:0.936174 7:0.789395 
1 0 0 0 0 0 1:0.639411 2:0.65784 3:0.665907 4:0.685167 5:0.701395 6:0.907788 7:0.794948 
1 0 0 0 0 0 1:0.622309 2:0.638657 3:0.646659 4:0.666922 5:0.683445 6:0.892796 7:0.733338 
1 1 0 0 0 0 1:0.626965 2:0.648456 3:0.651833 4:0.668437 5:0.679407 6:0.84693 7:0.607716 
1 0 0 0 0 0 1:0.632861 2:0.652635 3:0.657028 4:0.676168 5:0.690763 6:0.925264 7:0.814865 
1 0 0 0 0 0 1:0.638713 2:0.662315 3:0.665801 4:0.678338 5:0.689932 6:0.897861 7:0.670035 
1 0 0 0 0 0 1:0.632412 2:0.655891 3:0.658132 4:0.669313 5:0.678944 6:1.017856 7:0.679282 
1 1 0 0 0 0 1:0.627189 2:0.648394 3:0.652819 4:0.66617 5:0.678386 6:0.859819 7:0.61474 
1 0 0 0 0 0 1:0.630447 2:0.653397 3:0.65688 4:0.669246 5:0.68016 6:0.969869 7:0.732005 
1 0 0 0 0 0 1:0.632524 2:0.653617 3:0.656628 4:0.676046 5:0.688714 6:0.908124 7:0.729077 
1 1 0 0 0 0 1:0.630236 2:0.650573 3:0.651766 4:0.670578 5:0.682261 6:0.857166 7:0.62442 
1 0 0 0 0 0 1:0.629229 2:0.649405 3:0.655832 4:0.677818 5:0.695504 6:0.977334 7:0.785242 
1 0 0 0 0 0 1:0.634035 2:0.655862 3:0.657142 4:0.677014 5:0.689716 6:0.91741 7:0.790237 
1 0 0 0 0 0 1:0.622587 2:0.64048 3:0.644184 4:0.667716 5:0.686108 6:0.990987 7:0.81618 
1 0 0 0 0 0 1:0.629796 2:0.64919 3:0.657241 4:0.681797 5:0.698264 6:0.931805 7:0.814123 
1 0 0 0 0 0 1:0.638687 2:0.658632 3:0.667925 4:0.694037 5:0.712018 6:0.898201 7:0.945816 
1 0 0 0 0 0 1:0.635194 2:0.65393 3:0.657981 4:0.677683 5:0.696318 6:0.979011 7:0.782219 
1 0 0 0 0 0 1:0.629296 2:0.64701 3:0.651726 4:0.673134 5:0.688172 6:0.940072 7:0.743452 
1 0 0 0 0 0 1:0.61846 2:0.634217 3:0.639053 4:0.659451 5:0.674915 6:0.945348 7:0.731341 
1 0 0 0 0 0 1:0.636194 2:0.655556 3:0.659485 4:0.678335 5:0.692915 6:0.948099 7:0.778442 
1 0 0 0 0 0 1:0.620341 2:0.636702 3:0.642122 4:0.663307 5:0.679386 6:1.036985 7:0.736355 
1 0 0 0 0 0 1:0.632856 2:0.654315 3:0.658821 4:0.675996 5:0.687137 6:0.957547 7:0.682988 
1 0 0 0 0 0 1:0.629525 2:0.651689 3:0.653404 4:0.66322 5:0.672577 6:1.030346 7:0.652833 
1 0 0 0 0 0 1:0.615492 2:0.631633 3:0.63902 4:0.66184 5:0.678451 6:1.009087 7:0.778959 
1 0 0 0 0 0 1:0.635628 2:0.656915 3:0.660765 4:0.678594 5:0.691814 6:0.907706 7:0.804304 
1 0 0 0 0 0 1:0.634475 2:0.653739 3:0.659774 4:0.681836 5:0.697483 6:0.88298 7:0.764805 
1 0 0 0 0 0 1:0.629525 2:0.649281 3:0.655269 4:0.678649 5:0.693188 6:0.88585 7:0.693517 
1 0 0 0 0 0 1:0.632921 2:0.651741 3:0.657534 4:0.680115 5:0.69501 6:0.954078 7:0.717943 
1 0 0 0 0 0 1:0.609371 2:0.623847 3:0.629989 4:0.655401 5:0.673446 6:0.876418 7:0.738489 
1 0 0 0 0 0 1:0.636839 2:0.657343 3:0.660747 4:0.679867 5:0.69464 6:0.908093 7:0.720002 
1 0 0 0 0 0 1:0.623045 2:0.638652 3:0.644329 4:0.666842 5:0.685745 6:0.948262 7:0.767639 
1 0 0 0 0 0 1:0.63428 2:0.655807 3:0.658559 4:0.678295 5:0.69218 6:0.946543 7:0.708064 
1 0 0 0 0 0 1:0.621379 2:0.637041 3:0.642422 4:0.66572 5:0.685252 6:0.859257 7:0.767659 
1 0 0 0 0 0 1:0.61838 2:0.638033 3:0.64401 4:0.661364 5:0.67823 6:0.894104 7:0.688862 
1 0 0 0 0 0 1:0.620064 2:0.637649 3:0.644645 4:0.668378 5:0.683868 6:1.044881 7:0.681304 
1 1 1 0 0 0 1:0.61167 2:0.628807 3:0.632992 4:0.650086 5:0.666059 6:0.781092 7:0.687069 
1 0 0 0 0 0 1:0.632063 2:0.649354 3:0.656353 4:0.676302 5:0.695996 6:0.931777 7:0.770698 
1 0 0 0 0 0 1:0.618555 2:0.63717 3:0.642103 4:0.662524 5:0.680611 6:0.926631 7:0.729429 
1 0 0 0 0 0 1:0.605417 2:0.619488 3:0.625558 4:0.648896 5:0.668916 6:0.975276 7:0.748358 
1 0 0 0 0 0 1:0.619683 2:0.636612 3:0.641496 4:0.660012 5:0.679894 6:0.931705 7:0.743256 
1 0 0 0 0 0 1:0.609653 2:0.623713 3:0.629527 4:0.646079 5:0.666799 6:0.919649 7:0.779483 
1 0 0 0 0 0 1:0.63868 2:0.656374 3:0.660856 4:0.677629 5:0.697167 6:0.96846 7:0.793252 
1 0 0 0 0 0 1:0.634344 2:0.654986 3:0.666231 4:0.693314 5:0.712759 6:0.920957 7:0.863156 
1 0 0 0 0 0 1:0.622476 2:0.639499 3:0.649506 4:0.677672 5:0.698034 6:0.870102 7:0.838316 
1 0 0 0 0 0 1:0.631378 2:0.653567 3:0.661366 4:0.68283 5:0.698526 6:0.942609 7:0.844154 
1 0 0 0 0 0 1:0.636512 2:0.65852 3:0.663138 4:0.685715 5:0.7009 6:0.839592 7:0.798602 
1 0 0 0 0 0 1:0.622369 2:0.640707 3:0.647584 4:0.671889 5:0.687756 6:0.819721 7:0.766568 
1 0 0 0 0 0 1:0.63178 2:0.654616 3:0.659656 4:0.680658 5:0.693915 6:0.923002 7:0.774351 
1 0 0 0 0 0 1:0.635735 2:0.659067 3:0.66103 4:0.677044 5:0.689281 6:0.898616 7:0.759472 
1 0 0 0 0 0 1:0.627177 2:0.648488 3:0.650588 4:0.668049 5:0.679461 6:0.916097 7:0.668346 
1 0 0 0 0 0 1:0.63068 2:0.648287 3:0.653715 4:0.672123 5:0.685799 6:0.99751 7:0.668436 
1 0 0 0 0 0 1:0.613413 2:0.630125 3:0.634813 4:0.65265 5:0.666192 6:0.948711 7:0.642446 
1 1 0.7290459804386142 0 0 0 1:0.607497 2:0.622952 3:0.628123 4:0.646551 5:0.662245 6:0.793866 7:0.699064 
1 0 0 0 0 0 1:0.623437 2:0.64096 3:0.64505 4:0.663029 5:0.676727 6:0.904259 7:0.720354 
1 1 0 0 0 0 1:0.594456 2:0.607401 3:0.613009 4:0.6334 5:0.648969 6:0.879186 7:0.685621 
1 0 0 0 0 0 1:0.615437 2:0.633934 3:0.638614 4:0.657157 5:0.667771 6:0.936939 7:0.601227 
1 0 0 0 0 0 1:0.626336 2:0.644142 3:0.649501 4:0.667116 5:0.682793 6:0.912829 7:0.763695 
1 0 0 0 0 0 1:0.599457 2:0.613004 3:0.617336 4:0.635171 5:0.651201 6:0.942399 7:0.700353 
1 1 0 0 0 0 1:0.622433 2:0.640314 3:0.644074 4:0.661327 5:0.673194 6:0.883723 7:0.642937 
1 0 0 0 0 0 1:0.619444 2:0.637061 3:0.642748 4:0.664737 5:0.680873 6:0.959977 7:0.752383 
1 0 0 0 0 0 1:0.622498 2:0.638723 3:0.645156 4:0.668302 5:0.687134 6:0.92851 7:0.856986 
1 0 0 0 0 0 1:0.608427 2:0.624182 3:0.629902 4:0.650716 5:0.666172 6:0.995062 7:0.706344 
1 1 0 0 0 0 1:0.61809 2:0.637494 3:0.638916 4:0.653392 5:0.665513 6:0.892927 7:0.651407 
1 0 0 0 0 0 1:0.622408 2:0.640735 3:0.644651 4:0.663881 5:0.677634 6:0.928259 7:0.723645 
1 1 0 0 0 0 1:0.609942 2:0.627723 3:0.630577 4:0.645364 5:0.657057 6:0.929497 7:0.577 
1 0 0 0 0 0 1:0.623602 2:0.642634 3:0.648206 4:0.666142 5:0.680107 6:0.923725 7:0.747254 
1 0 0 0 0 0 1:0.619678 2:0.639825 3:0.645002 4:0.66644 5:0.678608 6:0.882737 7:0.724946 
1 0 0 0 0 0 1:0.611775 2:0.628082 3:0.635241 4:0.656938 5:0.672523 6:0.909721 7:0.761281 
1 0 0 0 0 0 1:0.625477 2:0.643494 3:0.648194 4:0.667383 5:0.682437 6:1.001057 7:0.749417 
1 0 0 0 0 0 1:0.628757 2:0.646658 3:0.653127 4:0.672908 5:0.686159 6:0.98061 7:0.729475 
1 0 0 0 0 0 1:0.63535 2:0.658053 3:0.663289 4:0.676936 5:0.693248 6:0.903737 7:0.775673 
1 0 0 0 0 0 1:0.63736 2:0.657194 3:0.664972 4:0.681671 5:0.700536 6:0.951655 7:0.794137 
1 0 0 0 0 0 1:0.63452 2:0.65596 3:0.660838 4:0.674556 5:0.690473 6:0.930735 7:0.785798 
1 0 0 0 0 0 1:0.632439 2:0.653165 3:0.657839 4:0.673913 5:0.690759 6:0.910407 7:0.82277 
1 0 0 0 0 0 1:0.630765 2:0.648089 3:0.651436 4:0.673378 5:0.687906 6:0.904777 7:0.697845 
1 0 0 0 0 0 1:0.614947 2:0.627983 3:0.633614 4:0.658562 5:0.677364 6:1.005579 7:0.744075 
1 0 0 0 0 0 1:0.625371 2:0.643037 3:0.647402 4:0.666381 5:0.684799 6:0.812773 7:0.860893 
1 1 0 0 0 0 1:0.618075 2:0.634363 3:0.640374 4:0.660442 5:0.677639 6:0.817466 7:0.758664 
1 0 0 0 0 0 1:0.624009 2:0.640735 3:0.647594 4:0.668363 5:0.686819 6:0.973219 7:0.90273 
1 0 0 0 0 0 1:0.627654 2:0.645605 3:0.650018 4:0.669717 5:0.689734 6:0.825773 7:0.847594 
1 0 0 0 0 0 1:0.630703 2:0.649206 3:0.655837 4:0.674091 5:0.691959 6:0.876883 7:0.842771 
1 0 0 0 0 0 1:0.62437 2:0.642552 3:0.649405 4:0.666685 5:0.682258 6:0.868907 7:0.718921 
1 0 0 0 0 0 1:0.639984 2:0.660831 3:0.66575 4:0.682294 5:0.696559 6:0.975193 7:0.732416 
1 0 0 0 0 0 1:0.63277 2:0.652716 3:0.657432 4:0.673727 5:0.689225 6:0.996044 7:0.742659 
1 0 0 0 0 0 1:0.64012 2:0.66331 3:0.668429 4:0.68735 5:0.700623 6:0.919092 7:0.791814 
1 0 0 0 0 0 1:0.637795 2:0.659025 3:0.664956 4:0.685294 5:0.699964 6:0.898959 7:0.734313 
1 0 0 0 0 0 1:0.631644 2:0.652708 3:0.65468 4:0.666677 5:0.678537 6:0.920711 7:0.680766 
1 0 0 0 0 0 1:0.63834 2:0.659687 3:0.661415 4:0.672646 5:0.689087 6:0.924134 7:0.814434 
1 1 0 0 0 0 1:0.619562 2:0.639097 3:0.641874 4:0.654288 5:0.665346 6:0.885937 7:0.614344 
1 0 0 0 0 0 1:0.602657 2:0.617397 3:0.62504 4:0.645548 5:0.661261 6:0.968256 7:0.668552 
1 0 0 0 0 0 1:0.636186 2:0.658806 3:0.659989 4:0.677386 5:0.687089 6:0.901619 7:0.694156 
1 0 0 0 0 0 1:0.624471 2:0.645726 3:0.651285 4:0.670605 5:0.682723 6:0.966992 7:0.780323 
1 0 0 0 0 0 1:0.630467 2:0.65108 3:0.655663 4:0.674711 5:0.686352 6:0.929029 7:0.687945 
1 1 0 0 0 0 1:0.626111 2:0.645005 3:0.652518 4:0.675442 5:0.689844 6:0.788259 7:0.717822 
1 0 0 0 0 0 1:0.618549 2:0.6336 3:0.643024 4:0.663229 5:0.681436 6:1.001403 7:0.767875 
1 0 0 0 0 0 1:0.634089 2:0.654312 3:0.660605 4:0.676939 5:0.691539 6:0.933918 7:0.739225 
1 0 0 0 0 0 1:0.62884 2:0.649968 3:0.656587 4:0.673804 5:0.685426 6:0.884299 7:0.689189 
1 0 0 0 0 0 1:0.618686 2:0.634318 3:0.643341 4:0.66281 5:0.677962 6:0.991591 7:0.72328 
1 0 0 0 0 0 1:0.633872 2:0.654687 3:0.661279 4:0.675192 5:0.688534 6:0.981635 7:0.696137 
1 1 0 0 0 0 1:0.631985 2:0.652615 3:0.65883 4:0.675907 5:0.689158 6:0.795684 7:0.730579 
1 0 0 0 0 0 1:0.617603 2:0.634097 3:0.642613 4:0.661709 5:0.677709 6:0.914933 7:0.73582 
1 0 0 0 0 0 1:0.633808 2:0.656249 3:0.661949 4:0.675366 5:0.686023 6:0.951436 7:0.643468 
1 1 1 0 0 0 1:0.630262 2:0.650916 3:0.652458 4:0.666678 5:0.677806 6:0.742383 7:0.729443 
1 1 0 0 0 0 1:0.621852 2:0.639631 3:0.646108 4:0.663915 5:0.678321 6:0.84243 7:0.710658 
1 0 0 0 0 0 1:0.628952 2:0.650744 3:0.653179 4:0.669109 5:0.678121 6:0.86536 7:0.704076 
1 1 0 0 0 0 1:0.625556 2:0.646173 3:0.651041 4:0.668977 5:0.682123 6:0.815601 7:0.734616 
1 1 0 0 0 0 1:0.61565 2:0.633525 3:0.639974 4:0.65917 5:0.672073 6:0.852691 7:0.713346 
1 0 0 0 0 0 1:0.629276 2:0.65085 3:0.655028 4:0.671988 5:0.683603 6:0.973869 7:0.719482 
1 0 0 0 0 0 1:0.62499 2:0.645165 3:0.648608 4:0.664022 5:0.676138 6:0.851109 7:0.72052 
1 0 0 0 0 0 1:0.630628 2:0.649446 3:0.654824 4:0.672555 5:0.686543 6:0.952228 7:0.768308 
1 0 0 0 0 0 1:0.620404 2:0.638784 3:0.644177 4:0.661131 5:0.675502 6:0.946959 7:0.717188 
1 0 0 0 0 0 1:0.630848 2:0.650509 3:0.655558 4:0.672389 5:0.686252 6:0.953479 7:0.767726 
1 0 0 0 0 0 1:0.629112 2:0.652848 3:0.659005 4:0.677999 5:0.693767 6:0.858841 7:0.935048 
1 0 0 0 0 0 1:0.618563 2:0.645001 3:0.649315 4:0.661351 5:0.669495 6:0.971743 7:0.744038 
1 0 0 0 0 0 1:0.631777 2:0.652621 3:0.659446 4:0.679972 5:0.700099 6:0.816859 7:0.919705 
1 0 0 0 0 0 1:0.636626 2:0.658786 3:0.664126 4:0.681947 5:0.695904 6:0.88134 7:0.845274 
1 0 0 0 0 0 1:0.63543 2:0.655762 3:0.662651 4:0.681533 5:0.697655 6:0.896285 7:0.774185 
1 0 0 0 0 0 1:0.621704 2:0.639233 3:0.643738 4:0.66304 5:0.677473 6:1.026425 7:0.682638 
1 0 0 0 0 0 1:0.620547 2:0.638531 3:0.64574 4:0.665502 5:0.68125 6:1.025786 7:0.709174 
1 0 0 0 0 0 1:0.621186 2:0.638751 3:0.644883 4:0.664788 5:0.681339 6:0.942957 7:0.769817 
1 0 0 0 0 0 1:0.637825 2:0.659336 3:0.663451 4:0.681954 5:0.696995 6:0.925751 7:0.870198 
1 0 0 0 0 0 1:0.628963 2:0.649152 3:0.652978 4:0.671503 5:0.685935 6:0.922083 7:0.760991 
1 0 0 0 0 0 1:0.63163 2:0.652911 3:0.655076 4:0.672659 5:0.688795 6:0.871645 7:0.874388 
1 0 0 0 0 0 1:0.632386 2:0.653389 3:0.655056 4:0.670703 5:0.684472 6:0.845235 7:0.716855 
1 0 0 0 0 0 1:0.633957 2:0.650385 3:0.653269 4:0.674492 5:0.692316 6:0.948679 7:0.80555 
1 0 0 0 0 0 1:0.618077 2:0.634125 3:0.641988 4:0.666133 5:0.684216 6:0.979557 7:0.688913 
1 0 0 0 0 0 1:0.598726 2:0.610527 3:0.619913 4:0.645652 5:0.667505 6:1.030337 7:0.737564 
1 0 0 0 0 0 1:0.619233 2:0.634962 3:0.641258 4:0.662303 5:0.683027 6:1.000067 7:0.738382 
1 0 0 0 0 0 1:0.599801 2:0.612509 3:0.621248 4:0.644875 5:0.667977 6:1.059092 7:0.768325 
1 0 0 0 0 0 1:0.631839 2:0.65036 3:0.657046 4:0.675853 5:0.689802 6:0.976388 7:0.743874 
1 0 0 0 0 0 1:0.625039 2:0.649163 3:0.652243 4:0.671686 5:0.680455 6:0.891285 7:0.632475 
1 0 0 0 0 0 1:0.620236 2:0.64006 3:0.646269 4:0.669858 5:0.681401 6:0.9355 7:0.636514 
1 0 0 0 0 0 1:0.628822 2:0.648027 3:0.652848 4:0.671544 5:0.68506 6:0.978088 7:0.752814 
1 0 0 0 0 0 1:0.632167 2:0.650019 3:0.657734 4:0.675187 5:0.697191 6:0.833214 7:0.898503 
1 0 0 0 0 0 1:0.610602 2:0.627312 3:0.633729 4:0.651742 5:0.665629 6:1.004456 7:0.687524 
1 0 0 0 0 0 1:0.619278 2:0.63651 3:0.641957 4:0.659467 5:0.674347 6:1.022477 7:0.742976 
1 1 0 0 0 0 1:0.616149 2:0.634674 3:0.638426 4:0.650993 5:0.664643 6:0.844612 7:0.731977 
1 0 0 0 0 0 1:0.620662 2:0.639831 3:0.645838 4:0.662548 5:0.678114 6:0.925506 7:0.852557 
1 0 0 0 0 0 1:0.622631 2:0.643636 3:0.649829 4:0.66548 5:0.67852 6:0.842425 7:0.834522 
1 1 0 0 0 0 1:0.610686 2:0.627939 3:0.633031 4:0.645153 5:0.658704 6:0.85024 7:0.680501 
1 0 0 0 0 0 1:0.623934 2:0.639868 3:0.647201 4:0.666533 5:0.685159 6:1.004696 7:0.786757 
1 0 0 0 0 0 1:0.604811 2:0.6201 3:0.624477 4:0.642261 5:0.657367 6:0.957742 7:0.684905 
1 0 0 0 0 0 1:0.62395 2:0.641374 3:0.647111 4:0.66544 5:0.681722 6:1.008496 7:0.7945 
1 0 0 0 0 0 1:0.628913 2:0.650703 3:0.655597 4:0.674392 5:0.685611 6:0.95009 7:0.739404 
1 0 0 0 0 0 1:0.615097 2:0.631195 3:0.637358 4:0.656447 5:0.674281 6:1.042679 7:0.748758 
1 0 0 0 0 0 1:0.615015 2:0.633012 3:0.636423 4:0.655857 5:0.668717 6:1.023258 7:0.603347 
1 0 0 0 0 0 1:0.634255 2:0.657902 3:0.661167 4:0.680115 5:0.693772 6:0.895797 7:0.827498 
1 0 0 0 0 0 1:0.633658 2:0.65408 3:0.6593 4:0.680022 5:0.696467 6:0.923619 7:0.766567 
1 0 0 0 0 0 1:0.63154 2:0.652527 3:0.657139 4:0.676302 5:0.687002 6:0.931973 7:0.695152 
1 0 0 0 0 0 1:0.633335 2:0.653617 3:0.658218 4:0.67865 5:0.689907 6:0.920145 7:0.699684 
1 0 0 0 0 0 1:0.628577 2:0.643905 3:0.651283 4:0.678522 5:0.695495 6:0.927508 7:0.769113 
1 0 0 0 0 0 1:0.635889 2:0.6607 3:0.659719 4:0.666543 5:0.677126 6:0.993187 7:0.783945 
1 0 0 0 0 0 1:0.631472 2:0.651254 3:0.655802 4:0.675891 5:0.691147 6:0.98434 7:0.75945 
1 0 0 0 0 0 1:0.624995 2:0.644247 3:0.64996 4:0.671744 5:0.689667 6:0.839948 7:0.937092 
1 0 0 0 0 0 1:0.631409 2:0.654807 3:0.658686 4:0.671293 5:0.681862 6:1.007632 7:0.691522 
1 0 0 0 0 0 1:0.623284 2:0.640462 3:0.646717 4:0.66787 5:0.684947 6:0.833263 7:0.833101 
1 0 0 0 0 0 1:0.624296 2:0.641538 3:0.648276 4:0.673285 5:0.693549 6:0.938548 7:0.995198 
1 0 0 0 0 0 1:0.62566 2:0.641953 3:0.648667 4:0.672924 5:0.692035 6:0.934052 7:0.876358 
1 0 0 0 0 0 1:0.638387 2:0.658885 3:0.663429 4:0.681687 5:0.697484 6:0.939185 7:0.771887 
1 0 0 0 0 0 1:0.623678 2:0.646831 3:0.650581 4:0.665582 5:0.676833 6:0.931898 7:0.800767 
1 0 0 0 0 0 1:0.637481 2:0.659578 3:0.663604 4:0.678717 5:0.69281 6:0.921291 7:0.743224 
1 0 0 0 0 0 1:0.628729 2:0.648968 3:0.650133 4:0.661688 5:0.67791 6:0.906921 7:0.694847 
1 0 0 0 0 0 1:0.626575 2:0.654593 3:0.660483 4:0.671722 5:0.679737 6:1.006473 7:0.680995 
1 0 0 0 0 0 1:0.634348 2:0.655893 3:0.662724 4:0.681781 5:0.696523 6:0.946276 7:0.842236 
1 0 0 0 0 0 1:0.629782 2:0.648509 3:0.656257 4:0.674914 5:0.692307 6:0.951854 7:0.823508 
1 0 0 0 0 0 1:0.611745 2:0.626969 3:0.633823 4:0.65226 5:0.673105 6:1.052838 7:0.787921 
1 0 0 0 0 0 1:0.63062 2:0.64852 3:0.652706 4:0.671209 5:0.686384 6:0.963207 7:0.727866 
1 1 0 0 0 0 1:0.605614 2:0.62069 3:0.629414 4:0.653488 5:0.67121 6:0.931023 7:0.592444 
1 0 0 0 0 0 1:0.613693 2:0.632296 3:0.635328 4:0.653274 5:0.666987 6:0.946361 7:0.648774 
1 0 0 0 0 0 1:0.629789 2:0.644732 3:0.649946 4:0.671321 5:0.68941 6:0.851318 7:0.837365 
1 0 0 0 0 0 1:0.609241 2:0.620918 3:0.630843 4:0.662632 5:0.682493 6:0.966335 7:0.669815 
1 0 0 0 0 0 1:0.618646 2:0.635426 3:0.637689 4:0.656578 5:0.672194 6:1.003837 7:0.638072 
1 0 0 0 0 0 1:0.612158 2:0.626165 3:0.632781 4:0.653987 5:0.66957 6:1.061372 7:0.656545 
1 0 0 0 0 0 1:0.607025 2:0.622379 3:0.626212 4:0.637368 5:0.647762 6:1.074794 7:0.516419 
1 0 0 0 0 0 1:0.609707 2:0.626824 3:0.631661 4:0.653257 5:0.666903 6:1.05336 7:0.677276 
1 0 0 0 0 0 1:0.618833 2:0.636669 3:0.639735 4:0.658355 5:0.672228 6:1.046623 7:0.676471 
1 0 0 0 0 0 1:0.61476 2:0.630263 3:0.635928 4:0.647984 5:0.664043 6:1.06571 7:0.674787 
1 0 0 0 0 0 1:0.632265 2:0.650592 3:0.65105 4:0.662024 5:0.677545 6:1.010862 7:0.755251 
1 0 0 0 0 0 1:0.616483 2:0.635726 3:0.636727 4:0.649298 5:0.660689 6:0.972145 7:0.591315 
1 0 0 0 0 0 1:0.613825 2:0.631149 3:0.633359 4:0.648773 5:0.660818 6:1.038779 7:0.661758 
1 0 0 0 0 0 1:0.624378 2:0.643623 3:0.647945 4:0.663945 5:0.678838 6:0.975061 7:0.676311 
1 0 0 0 0 0 1:0.613369 2:0.630054 3:0.632076 4:0.651014 5:0.663213 6:1.036752 7:0.657379 
1 0 0 0 0 0 1:0.623643 2:0.643606 3:0.646358 4:0.663859 5:0.675838 6:0.928519 7:0.650873 
1 0 0 0 0 0 1:0.624135 2:0.641162 3:0.642294 4:0.651666 5:0.665772 6:1.004988 7:0.637173 
1 0 0 0 0 0 1:0.614959 2:0.634459 3:0.636347 4:0.648623 5:0.659876 6:1.014506 7:0.537076 
1 0 0 0 0 0 1:0.618209 2:0.63362 3:0.636749 4:0.649602 5:0.666362 6:1.041631 7:0.67641 
1 0 0 0 0 0 1:0.616246 2:0.634779 3:0.638728 4:0.653028 5:0.666956 6:1.075391 7:0.590186 
1 0 0 0 0 0 1:0.627731 2:0.643966 3:0.648422 4:0.667554 5:0.684194 6:0.997894 7:0.782627 
1 0 0 0 0 0 1:0.610669 2:0.626284 3:0.633337 4:0.655416 5:0.673018 6:1.02363 7:0.731553 
1 0 0 0 0 0 1:0.610572 2:0.627273 3:0.635587 4:0.658464 5:0.673702 6:1.057952 7:0.745518 
1 0 0 0 0 0 1:0.624575 2:0.642678 3:0.64661 4:0.665042 5:0.679675 6:0.971751 7:0.716024 
1 0 0 0 0 0 1:0.626274 2:0.646209 3:0.649213 4:0.664149 5:0.67639 6:1.029199 7:0.666339 
1 0 0 0 0 0 1:0.617683 2:0.634203 3:0.635983 4:0.649546 5:0.662884 6:0.913009 7:0.649288 
1 1 0 0 0 0 1:0.610258 2:0.628352 3:0.631726 4:0.64757 5:0.660955 6:0.89306 7:0.5957 
1 1 0 0 0 0 1:0.624772 2:0.638704 3:0.646687 4:0.671357 5:0.680849 6:0.8245 7:0.653133 
1 0 0 0 0 0 1:0.627837 2:0.647003 3:0.650911 4:0.667962 5:0.681584 6:0.851477 7:0.713093 
1 0 0 0 0 0 1:0.622352 2:0.638148 3:0.64324 4:0.660644 5:0.6765 6:1.009816 7:0.792255 
1 0 0 0 0 0 1:0.626453 2:0.644303 3:0.648751 4:0.666734 5:0.681787 6:1.001543 7:0.692532 
1 0 0 0 0 0 1:0.62523 2:0.640396 3:0.641988 4:0.659594 5:0.675884 6:1.01644 7:0.731825 
1 0 0 0 0 0 1:0.625325 2:0.63957 3:0.645367 4:0.664573 5:0.681235 6:0.975737 7:0.72563 
1 0 0 0 0 0 1:0.629039 2:0.647979 3:0.651518 4:0.664649 5:0.680034 6:1.020808 7:0.69398 
1 0 0 0 0 0 1:0.611863 2:0.626901 3:0.633702 4:0.652252 5:0.670571 6:1.030528 7:0.74058 
1 0 0 0 0 0 1:0.613646 2:0.631363 3:0.636377 4:0.654605 5:0.669036 6:0.973462 7:0.660155 
1 0 0 0 0 0 1:0.614994 2:0.633664 3:0.638881 4:0.657159 5:0.66944 6:1.045025 7:0.624604 
1 0 0 0 0 0 1:0.620458 2:0.63867 3:0.640087 4:0.656649 5:0.667812 6:1.039986 7:0.66893 
1 0 0 0 0 0 1:0.608921 2:0.626993 3:0.626136 4:0.635624 5:0.64299 6:1.019976 7:0.540901 
1 0 0 0 0 0 1:0.615425 2:0.631432 3:0.638232 4:0.664481 5:0.679142 6:1.003459 7:0.711489 
1 0 0 0 0 0 1:0.617312 2:0.633972 3:0.635795 4:0.648762 5:0.663173 6:1.049862 7:0.739412 
1 0 0 0 0 0 1:0.625745 2:0.646549 3:0.648186 4:0.665998 5:0.679754 6:1.036134 7:0.678851 
1 0 0 0 0 0 1:0.606796 2:0.622081 3:0.62826 4:0.648364 5:0.664731 6:1.081111 7:0.682826 
1 0 0 0 0 0 1:0.594298 2:0.607844 3:0.611062 4:0.630328 5:0.645557 6:1.113979 7:0.58299 
1 0 0 0 0 0 1:0.602274 2:0.618373 3:0.622887 4:0.637217 5:0.651393 6:1.033466 7:0.629113 
1 0 0 0 0 0 1:0.609164 2:0.626084 3:0.630599 4:0.644406 5:0.6594 6:1.10241 7:0.616328 
1 0 0 0 0 0 1:0.590972 2:0.605464 3:0.609979 4:0.625127 5:0.6374 6:1.184536 7:0.524634 
1 0 0 0 0 0 1:0.609632 2:0.627319 3:0.630826 4:0.643175 5:0.656462 6:1.09109 7:0.597266 
1 0 0 0 0 0 1:0.617034 2:0.630371 3:0.633986 4:0.650656 5:0.667899 6:1.03238 7:0.753662 
1 0 0 0 0 0 1:0.615544 2:0.629986 3:0.631391 4:0.649211 5:0.665104 6:0.992497 7:0.749164 
1 0 0 0 0 0 1:0.616641 2:0.631431 3:0.635357 4:0.650666 5:0.666423 6:1.0558 7:0.714541 
1 0 0 0 0 0 1:0.616284 2:0.632542 3:0.63487 4:0.649321 5:0.661349 6:0.998119 7:0.655151 
1 0 0 0 0 0 1:0.613863 2:0.630474 3:0.63457 4:0.651262 5:0.665784 6:1.088372 7:0.634121 
1 0 0 0 0 0 1:0.607008 2:0.622917 3:0.625409 4:0.641453 5:0.652275 6:1.019295 7:0.601251 
1 0 0 0 0 0 1:0.62226 2:0.639786 3:0.642998 4:0.659069 5:0.670397 6:1.042562 7:0.698633 
1 0 0 0 0 0 1:0.614369 2:0.628323 3:0.633574 4:0.649452 5:0.665356 6:1.002005 7:0.666978 
1 0 0 0 0 0 1:0.62265 2:0.638425 3:0.640176 4:0.656707 5:0.671138 6:0.918292 7:0.683301 
1 0 0 0 0 0 1:0.618908 2:0.636989 3:0.639253 4:0.656351 5:0.669567 6:0.959354 7:0.619492 
1 1 0 0 0 0 1:0.617807 2:0.634763 3:0.634778 4:0.651429 5:0.661685 6:0.926686 7:0.609396 
1 0 0 0 0 0 1:0.628738 2:0.648809 3:0.649365 4:0.663494 5:0.676068 6:0.884069 7:0.655055 
1 0 0 0 0 0 1:0.623373 2:0.641817 3:0.640148 4:0.64762 5:0.66203 6:1.031921 7:0.72992 
1 0 0 0 0 0 1:0.629203 2:0.650627 3:0.650258 4:0.659225 5:0.67123 6:0.995789 7:0.618518 
1 0 0 0 0 0 1:0.621318 2:0.640052 3:0.640073 4:0.649336 5:0.662255 6:0.986227 7:0.746218 
1 0 0 0 0 0 1:0.622251 2:0.63996 3:0.643283 4:0.663517 5:0.674474 6:0.971749 7:0.676736 
1 0 0 0 0 0 1:0.626515 2:0.647135 3:0.650097 4:0.666706 5:0.67674 6:0.93439 7:0.638237 
1 0 0 0 0 0 1:0.629974 2:0.646987 3:0.649059 4:0.667497 5:0.681087 6:0.949551 7:0.762406 
1 0 0 0 0 0 1:0.631795 2:0.651736 3:0.656651 4:0.676542 5:0.689974 6:0.977205 7:0.712478 
1 0 0 0 0 0 1:0.622517 2:0.640035 3:0.641488 4:0.660528 5:0.671934 6:1.010145 7:0.674258 
1 0 0 0 0 0 1:0.623355 2:0.643503 3:0.64489 4:0.662201 5:0.673993 6:0.918355 7:0.671302 
1 0 0 0 0 0 1:0.624858 2:0.643762 3:0.645831 4:0.662919 5:0.673192 6:0.975205 7:0.685647 
1 0 0 0 0 0 1:0.634295 2:0.655774 3:0.656619 4:0.672641 5:0.684245 6:0.998004 7:0.72402 
1 1 0 0 0 0 1:0.600902 2:0.614356 3:0.617868 4:0.633937 5:0.648351 6:0.912835 7:0.633245 
1 1 0 0 0 0 1:0.581258 2:0.590221 3:0.593494 4:0.611346 5:0.629456 6:0.984854 7:0.607539 
1 0 0 0 0 0 1:0.59984 2:0.614468 3:0.617431 4:0.634244 5:0.647951 6:1.049069 7:0.59591 
1 0 0 0 0 0 1:0.608847 2:0.620565 3:0.625108 4:0.642524 5:0.659623 6:1.047556 7:0.71823 
1 0 0 0 0 0 1:0.609724 2:0.622625 3:0.625079 4:0.642183 5:0.659574 6:1.006135 7:0.758976 
1 1 0 0 0 0 1:0.59591 2:0.611153 3:0.613629 4:0.63278 5:0.643839 6:0.983071 7:0.56453 
1 0 0 0 0 0 1:0.620209 2:0.63811 3:0.642385 4:0.660634 5:0.67435 6:1.023211 7:0.653951 
1 0 0 0 0 0 1:0.618233 2:0.633214 3:0.638753 4:0.654712 5:0.670112 6:1.008505 7:0.725498 
1 0 0 0 0 0 1:0.618505 2:0.636596 3:0.638101 4:0.65394 5:0.665492 6:1.012445 7:0.606435 
1 0 0 0 0 0 1:0.621946 2:0.636138 3:0.642893 4:0.659915 5:0.677581 6:1.011355 7:0.774713 
1 0 0 0 0 0 1:0.61651 2:0.63584 3:0.638932 4:0.65454 5:0.665855 6:1.031899 7:0.620327 
1 0 0 0 0 0 1:0.602046 2:0.618986 3:0.621961 4:0.639174 5:0.651095 6:1.094044 7:0.571909 
1 0 0 0 0 0 1:0.638827 2:0.660486 3:0.663808 4:0.681329 5:0.696366 6:0.955107 7:0.736893 
1 0 0 0 0 0 1:0.635229 2:0.656662 3:0.661532 4:0.678873 5:0.690865 6:0.974115 7:0.767282 
1 0 0 0 0 0 1:0.625558 2:0.645388 3:0.647534 4:0.667921 5:0.680832 6:0.915882 7:0.750172 
1 0 0 0 0 0 1:0.630535 2:0.651332 3:0.65332 4:0.669039 5:0.681539 6:0.98893 7:0.717806 
1 0 0 0 0 0 1:0.627711 2:0.647931 3:0.650546 4:0.671308 5:0.684895 6:0.95395 7:0.773736 
1 0 0 0 0 0 1:0.606294 2:0.620638 3:0.626703 4:0.64806 5:0.665937 6:1.055694 7:0.70628 
1 0 0 0 0 0 1:0.61024 2:0.625115 3:0.629998 4:0.652538 5:0.670352 6:1.071729 7:0.735904 
1 0 0 0 0 0 1:0.602449 2:0.616355 3:0.622617 4:0.641521 5:0.657226 6:1.023583 7:0.639893 
1 0 0 0 0 0 1:0.599924 2:0.616806 3:0.622859 4:0.641062 5:0.654698 6:1.086489 7:0.59961 
1 0 0 0 0 0 1:0.619166 2:0.636021 3:0.641416 4:0.661766 5:0.675983 6:1.002878 7:0.681853 
1 0 0 0 0 0 1:0.619841 2:0.637277 3:0.642569 4:0.660895 5:0.67598 6:1.038325 7:0.713462 
1 0 0 0 0 0 1:0.62399 2:0.637717 3:0.643661 4:0.656825 5:0.676447 6:0.938839 7:0.745213 
1 0 0 0 0 0 1:0.616175 2:0.634994 3:0.637459 4:0.651527 5:0.664204 6:0.992079 7:0.602341 
1 1 0 0 0 0 1:0.613585 2:0.63218 3:0.633734 4:0.647013 5:0.658515 6:0.943596 7:0.554554 
1 0 0 0 0 0 1:0.62419 2:0.639715 3:0.647079 4:0.669588 5:0.687823 6:1.008144 7:0.750516 
1 0 0 0 0 0 1:0.620848 2:0.632953 3:0.639025 4:0.661628 5:0.684038 6:0.995191 7:0.854179 
1 0 0 0 0 0 1:0.628215 2:0.64622 3:0.649644 4:0.66662 5:0.679431 6:0.96385 7:0.737577 
1 0 0 0 0 0 1:0.618465 2:0.63511 3:0.638495 4:0.651446 5:0.663138 6:0.979937 7:0.612924 
1 0 0 0 0 0 1:0.627225 2:0.646328 3:0.650843 4:0.672014 5:0.686187 6:0.886846 7:0.72812 
1 0 0 0 0 0 1:0.629169 2:0.647389 3:0.652005 4:0.672526 5:0.688581 6:0.996752 7:0.778288 
1 0 0 0 0 0 1:0.630294 2:0.648545 3:0.652638 4:0.671719 5:0.68619 6:0.972742 7:0.813143 
1 0 0 0 0 0 1:0.629836 2:0.648263 3:0.652863 4:0.673572 5:0.689372 6:0.994611 7:0.777129 
1 0 0 0 0 0 1:0.593156 2:0.600423 3:0.612183 4:0.649048 5:0.669792 6:0.983093 7:0.686762 
1 0 0 0 0 0 1:0.614442 2:0.629938 3:0.635201 4:0.657073 5:0.672686 6:1.060426 7:0.667081 
1 0 0 0 0 0 1:0.620501 2:0.634742 3:0.642091 4:0.668158 5:0.686551 6:1.013783 7:0.741664 
1 0 0 0 0 0 1:0.622234 2:0.637472 3:0.643176 4:0.667749 5:0.685046 6:0.942936 7:0.737457 
1 0 0 0 0 0 1:0.606654 2:0.619577 3:0.626583 4:0.653426 5:0.670493 6:1.043872 7:0.659797 
1 0 0 0 0 0 1:0.602841 2:0.61819 3:0.623677 4:0.646595 5:0.662836 6:0.896465 7:0.689615 
1 0 0 0 0 0 1:0.610508 2:0.625765 3:0.631187 4:0.651843 5:0.670107 6:0.978887 7:0.706525 
1 0 0 0 0 0 1:0.609247 2:0.621743 3:0.628869 4:0.652774 5:0.67183 6:1.053602 7:0.678397 
1 0 0 0 0 0 1:0.603218 2:0.61843 3:0.624131 4:0.647075 5:0.661828 6:0.96098 7:0.637804 
1 0 0 0 0 0 1:0.623506 2:0.641119 3:0.643812 4:0.658609 5:0.67203 6:1.042474 7:0.671653 
1 0 0 0 0 0 1:0.61069 2:0.627114 3:0.632058 4:0.650504 5:0.667984 6:0.980667 7:0.714246 
1 0 0 0 0 0 1:0.621239 2:0.640875 3:0.642215 4:0.656924 5:0.670586 6:1.027476 7:0.66353 
1 0 0 0 0 0 1:0.611005 2:0.628365 3:0.631177 4:0.648215 5:0.661962 6:0.983305 7:0.614127 
1 0 0 0 0 0 1:0.613631 2:0.628689 3:0.633342 4:0.652723 5:0.669373 6:1.030661 7:0.69538 
1 0 0 0 0 0 1:0.623637 2:0.639204 3:0.644033 4:0.663723 5:0.680046 6:1.022784 7:0.716254 
1 0 0 0 0 0 1:0.608057 2:0.62385 3:0.628173 4:0.64832 5:0.662612 6:1.021535 7:0.639242 
1 0 0 0 0 0 1:0.605241 2:0.62218 3:0.630158 4:0.648075 5:0.662838 6:1.06786 7:0.65113 
1 0 0 0 0 0 1:0.608038 2:0.624905 3:0.63057 4:0.648786 5:0.664369 6:0.982285 7:0.648601 
1 0 0 0 0 0 1:0.619258 2:0.63567 3:0.640379 4:0.6568 5:0.673194 6:1.004997 7:0.692254 
1 0 0 0 0 0 1:0.599326 2:0.613612 3:0.619937 4:0.638529 5:0.658575 6:1.029054 7:0.70565 
1 0 0 0 0 0 1:0.609998 2:0.627607 3:0.630858 4:0.645606 5:0.662082 6:0.961782 7:0.650247 
1 0 0 0 0 0 1:0.627866 2:0.646124 3:0.650704 4:0.666139 5:0.681566 6:1.002853 7:0.732927 
1 0 0 0 0 0 1:0.612248 2:0.626437 3:0.633498 4:0.650879 5:0.668605 6:1.03788 7:0.72141 
1 0 0 0 0 0 1:0.606276 2:0.622249 3:0.628446 4:0.645958 5:0.662846 6:0.991761 7:0.693934 
1 0 0 0 0 0 1:0.623222 2:0.643797 3:0.645487 4:0.655663 5:0.6638 6:0.937494 7:0.581567 
1 0 0 0 0 0 1:0.613025 2:0.632024 3:0.634188 4:0.646823 5:0.659255 6:1.015116 7:0.610968 
1 0 0 0 0 0 1:0.621825 2:0.641983 3:0.645457 4:0.652323 5:0.662968 6:0.984749 7:0.590228 
1 0 0 0 0 0 1:0.614471 2:0.633737 3:0.63755 4:0.647318 5:0.661946 6:1.05696 7:0.628741 
1 0 0 0 0 0 1:0.625846 2:0.645397 3:0.648401 4:0.658177 5:0.669985 6:1.020484 7:0.615764 
1 0 0 0 0 0 1:0.616308 2:0.634181 3:0.636036 4:0.649475 5:0.663704 6:1.047081 7:0.667422 
1 0 0 0 0 0 1:0.627341 2:0.647707 3:0.648147 4:0.669814 5:0.682088 6:1.022874 7:0.662451 
1 0 0 0 0 0 1:0.619289 2:0.637586 3:0.640916 4:0.658574 5:0.671978 6:0.989098 7:0.662647 
1 0 0 0 0 0 1:0.614087 2:0.632343 3:0.635879 4:0.652553 5:0.667243 6:1.0416 7:0.666084 
1 0 0 0 0 0 1:0.607575 2:0.623334 3:0.627687 4:0.641096 5:0.658341 6:1.069801 7:0.690214 
1 1 0 0 0 0 1:0.604932 2:0.622537 3:0.624268 4:0.633922 5:0.646359 6:0.945855 7:0.576174 
1 0 0 0 0 0 1:0.610281 2:0.623012 3:0.63068 4:0.648248 5:0.669658 6:1.039777 7:0.781364 
1 1 0 0 0 0 1:0.623388 2:0.64314 3:0.644388 4:0.660302 5:0.671218 6:0.910002 7:0.594462 
1 1 0 0 0 0 1:0.628239 2:0.648765 3:0.648872 4:0.664676 5:0.676332 6:0.905145 7:0.606434 
1 0 0 0 0 0 1:0.627923 2:0.6479 3:0.650408 4:0.668237 5:0.680714 6:0.965186 7:0.624916 
1 0 0 0 0 0 1:0.614142 2:0.628657 3:0.631448 4:0.650477 5:0.668742 6:1.078468 7:0.695455 
1 0 0 0 0 0 1:0.624815 2:0.644094 3:0.644743 4:0.657654 5:0.672285 6:1.023178 7:0.662581 
1 0 0 0 0 0 1:0.621131 2:0.637183 3:0.640162 4:0.653153 5:0.671779 6:1.052696 7:0.708468 
1 0 0 0 0 0 1:0.625374 2:0.645076 3:0.646181 4:0.656822 5:0.670555 6:0.975825 7:0.634883 
1 0 0 0 0 0 1:0.625849 2:0.645084 3:0.647751 4:0.657772 5:0.674661 6:0.961522 7:0.709938 
1 0 0 0 0 0 1:0.614215 2:0.62928 3:0.637574 4:0.660062 5:0.676968 6:1.050472 7:0.676219 
1 0 0 0 0 0 1:0.617777 2:0.635271 3:0.641128 4:0.660526 5:0.676204 6:0.940271 7:0.6603 
1 0 0 0 0 0 1:0.60992 2:0.623861 3:0.630225 4:0.649513 5:0.667122 6:1.037988 7:0.63643 
1 1 0 0 0 0 1:0.614418 2:0.631957 3:0.635965 4:0.652588 5:0.667461 6:0.909303 7:0.61607 
1 1 0 0 0 0 1:0.621849 2:0.64155 3:0.643317 4:0.656033 5:0.669636 6:0.892904 7:0.615237 
1 0 0 0 0 0 1:0.622409 2:0.636612 3:0.644102 4:0.668371 5:0.688581 6:0.952563 7:0.864281 
1 0 0 0 0 0 1:0.628216 2:0.646476 3:0.653129 4:0.671792 5:0.687824 6:0.95286 7:0.769687 
1 0 0 0 0 0 1:0.62659 2:0.644181 3:0.651188 4:0.670987 5:0.688344 6:0.963269 7:0.757247 
1 0 0 0 0 0 1:0.621601 2:0.636965 3:0.642511 4:0.659112 5:0.677162 6:1.001144 7:0.758697 
1 0 0 0 0 0 1:0.618061 2:0.634198 3:0.640622 4:0.658027 5:0.674368 6:0.993176 7:0.720914 
1 0 0 0 0 0 1:0.61881 2:0.631833 3:0.637902 4:0.657186 5:0.675732 6:1.009941 7:0.724165 
1 0 0 0 0 0 1:0.616517 2:0.632162 3:0.637777 4:0.657052 5:0.672719 6:0.912067 7:0.663188 
1 0 0 0 0 0 1:0.617686 2:0.630559 3:0.636626 4:0.654726 5:0.672334 6:1.005919 7:0.735286 
1 0 0 0 0 0 1:0.612082 2:0.626448 3:0.632825 4:0.653089 5:0.669402 6:0.979942 7:0.6516 
1 0 0 0 0 0 1:0.614491 2:0.627809 3:0.63393 4:0.652957 5:0.670989 6:0.980392 7:0.724617 
1 0 0 0 0 0 1:0.614988 2:0.630729 3:0.636613 4:0.654228 5:0.669403 6:0.987422 7:0.641652 
1 0 0 0 0 0 1:0.629903 2:0.647831 3:0.653471 4:0.672803 5:0.693417 6:0.939353 7:0.766914 
1 0 0 0 0 0 1:0.622637 2:0.639807 3:0.643873 4:0.65994 5:0.676505 6:0.99661 7:0.635231 
1 1 0 0 0 0 1:0.614616 2:0.633155 3:0.638422 4:0.658654 5:0.677346 6:0.834497 7:0.700094 
1 0 0 0 0 0 1:0.624555 2:0.640414 3:0.645475 4:0.663733 5:0.680816 6:1.038409 7:0.671378 
1 0 0 0 0 0 1:0.616953 2:0.636161 3:0.641731 4:0.65881 5:0.67419 6:0.912202 7:0.64804 
1 0 0 0 0 0 1:0.627963 2:0.647332 3:0.651735 4:0.668546 5:0.684951 6:0.923807 7:0.709555 
1 0 0 0 0 0 1:0.633452 2:0.653953 3:0.656046 4:0.673989 5:0.69114 6:0.929 7:0.77162 
1 0 0 0 0 0 1:0.637438 2:0.66022 3:0.661823 4:0.67463 5:0.688492 6:1.001985 7:0.677529 
1 0 0 0 0 0 1:0.616003 2:0.628936 3:0.636055 4:0.660414 5:0.678255 6:0.909476 7:0.748097 
1 0 0 0 0 0 1:0.61843 2:0.633478 3:0.641433 4:0.662319 5:0.680231 6:1.047806 7:0.692288 
1 0 0 0 0 0 1:0.613627 2:0.624629 3:0.634753 4:0.662632 5:0.68244 6:0.894178 7:0.726785 
1 0 0 0 0 0 1:0.614285 2:0.628034 3:0.635085 4:0.655148 5:0.673633 6:1.0333 7:0.684099 
1 0 0 0 0 0 1:0.619637 2:0.633315 3:0.642455 4:0.667367 5:0.68561 6:0.9214 7:0.799633 
1 0 0 0 0 0 1:0.614246 2:0.628541 3:0.637096 4:0.657939 5:0.675609 6:1.008317 7:0.691544 
1 0 0 0 0 0 1:0.619879 2:0.639641 3:0.644212 4:0.660256 5:0.673329 6:1.059902 7:0.658718 
1 0 0 0 0 0 1:0.629792 2:0.649848 3:0.652975 4:0.67027 5:0.686756 6:0.942652 7:0.702625 
1 0 0 0 0 0 1:0.627195 2:0.645476 3:0.652048 4:0.67332 5:0.689991 6:0.984578 7:0.715727 
1 0 0 0 0 0 1:0.623071 2:0.6416 3:0.647803 4:0.662354 5:0.679393 6:0.993352 7:0.79747 
1 0 0 0 0 0 1:0.627516 2:0.643864 3:0.651369 4:0.671864 5:0.692608 6:0.994535 7:0.788723 
1 0 0 0 0 0 1:0.632969 2:0.651551 3:0.654477 4:0.672265 5:0.688258 6:0.9659 7:0.787008 
1 0 0 0 0 0 1:0.610383 2:0.627926 3:0.632879 4:0.648792 5:0.658815 6:0.980745 7:0.592585 
1 1 1 0 0 0 1:0.629271 2:0.650552 3:0.652044 4:0.66306 5:0.672909 6:0.794996 7:0.642338 
1 0 0 0 0 0 1:0.63096 2:0.647645 3:0.652064 4:0.66963 5:0.688879 6:0.981601 7:0.838769 
1 0 0 0 0 0 1:0.621261 2:0.633442 3:0.643631 4:0.666901 5:0.684901 6:1.032323 7:0.569027 
1 1 0 0 0 0 1:0.628541 2:0.648522 3:0.649341 4:0.65927 5:0.675142 6:0.801007 7:0.725335 
1 0 0 0 0 0 1:0.628398 2:0.646155 3:0.650145 4:0.665755 5:0.683196 6:0.979993 7:0.792635 
1 0 0 0 0 0 1:0.617722 2:0.634666 3:0.63947 4:0.655658 5:0.668076 6:0.961694 7:0.619857 
1 0 0 0 0 0 1:0.62895 2:0.648982 3:0.649827 4:0.661309 5:0.678099 6:0.842551 7:0.775287 
1 0 0 0 0 0 1:0.618631 2:0.639087 3:0.642304 4:0.658576 5:0.670156 6:0.943243 7:0.671258 
1 1 0 0 0 0 1:0.632045 2:0.65401 3:0.654374 4:0.668963 5:0.679613 6:0.888661 7:0.601234 
1 0 0 0 0 0 1:0.623364 2:0.644223 3:0.64763 4:0.663216 5:0.6762 6:0.974248 7:0.656245 
1 0 0 0 0 0 1:0.635135 2:0.655439 3:0.660343 4:0.678012 5:0.694281 6:0.95849 7:0.698543 
1 0 0 0 0 0 1:0.633508 2:0.654822 3:0.65911 4:0.677578 5:0.693021 6:0.984508 7:0.708183 
1 0 0 0 0 0 1:0.622345 2:0.643248 3:0.647404 4:0.665982 5:0.679379 6:0.879455 7:0.68864 
1 0 0 0 0 0 1:0.631549 2:0.652203 3:0.657502 4:0.676295 5:0.692419 6:0.916808 7:0.693971 
1 0 0 0 0 0 1:0.635113 2:0.65451 3:0.658319 4:0.678033 5:0.694569 6:0.98822 7:0.715141 
1 0 0 0 0 0 1:0.632815 2:0.650172 3:0.656989 4:0.677601 5:0.696415 6:0.956341 7:0.797004 
1 0 0 0 0 0 1:0.633927 2:0.653571 3:0.658048 4:0.676093 5:0.691791 6:0.979254 7:0.714814 
1 0 0 0 0 0 1:0.618909 2:0.63288 3:0.640602 4:0.666714 5:0.683891 6:1.0111 7:0.7399 
1 0 0 0 0 0 1:0.614716 2:0.629089 3:0.633787 4:0.657295 5:0.672921 6:0.957819 7:0.701786 
1 0 0 0 0 0 1:0.617052 2:0.633793 3:0.63624 4:0.651816 5:0.662789 6:0.973996 7:0.611344 
1 0 0 0 0 0 1:0.615957 2:0.631606 3:0.637546 4:0.661443 5:0.676297 6:0.966625 7:0.679744 
1 0 0 0 0 0 1:0.612704 2:0.628471 3:0.633198 4:0.651513 5:0.665454 6:0.998485 7:0.636542 
1 0 0 0 0 0 1:0.628703 2:0.648597 3:0.652593 4:0.663609 5:0.678018 6:0.957834 7:0.684565 
1 0 0 0 0 0 1:0.630018 2:0.652208 3:0.654007 4:0.664583 5:0.673737 6:0.933479 7:0.633334 
1 0 0 0 0 0 1:0.628852 2:0.64866 3:0.649491 4:0.665069 5:0.676579 6:0.985445 7:0.633993 
1 0 0 0 0 0 1:0.630325 2:0.650331 3:0.651851 4:0.66612 5:0.677078 6:1.019107 7:0.702108 
1 0 0 0 0 0 1:0.620465 2:0.635909 3:0.641049 4:0.660054 5:0.674833 6:1.022176 7:0.713598 
1 0 0 0 0 0 1:0.626453 2:0.646292 3:0.647314 4:0.66042 5:0.670403 6:1.032965 7:0.62293 
1 0 0 0 0 0 1:0.622893 2:0.63869 3:0.643896 4:0.664996 5:0.680783 6:0.911691 7:0.69402 
1 0 0 0 0 0 1:0.618977 2:0.634336 3:0.639898 4:0.656975 5:0.675795 6:1.01979 7:0.702891 
1 0 0 0 0 0 1:0.632997 2:0.654027 3:0.656087 4:0.669176 5:0.682545 6:1.016582 7:0.627476 
1 0 0 0 0 0 1:0.635023 2:0.656 3:0.656363 4:0.667326 5:0.680646 6:1.013219 7:0.632325 
1 0 0 0 0 0 1:0.632916 2:0.652371 3:0.657004 4:0.673871 5:0.688983 6:0.955244 7:0.749281 
1 1 0 0 0 0 1:0.625141 2:0.641866 3:0.648049 4:0.666054 5:0.68006 6:0.86107 7:0.682987 
1 1 0 0 0 0 1:0.629343 2:0.649589 3:0.652924 4:0.668731 5:0.681529 6:0.871501 7:0.658079 
1 0 0 0 0 0 1:0.632568 2:0.652541 3:0.657989 4:0.676423 5:0.69181 6:0.963763 7:0.829138 
1 0 0 0 0 0 1:0.624885 2:0.644087 3:0.645572 4:0.665077 5:0.67678 6:0.902765 7:0.654845 
1 1 1 0 0 0 1:0.613875 2:0.63157 3:0.634507 4:0.653365 5:0.66634 6:0.778593 7:0.657998 
1 1 0 0 0 0 1:0.617004 2:0.635539 3:0.640397 4:0.660917 5:0.675637 6:0.85684 7:0.657319 
1 0 0 0 0 0 1:0.626646 2:0.64601 3:0.651624 4:0.671872 5:0.687895 6:0.940829 7:0.7746 
1 0 0 0 0 0 1:0.632022 2:0.649944 3:0.655026 4:0.673026 5:0.689182 6:1.002644 7:0.718199 
1 0 0 0 0 0 1:0.625259 2:0.639735 3:0.646873 4:0.667081 5:0.68579 6:0.956553 7:0.769924 
1 1 0 0 0 0 1:0.62581 2:0.646089 3:0.649961 4:0.664332 5:0.676686 6:0.876062 7:0.633985 
1 0 0 0 0 0 1:0.631296 2:0.650776 3:0.656081 4:0.674324 5:0.689518 6:0.963718 7:0.81592 
1 0 0 0 0 0 1:0.628316 2:0.650599 3:0.655063 4:0.667529 5:0.677866 6:0.954988 7:0.659651 
1 0 0 0 0 0 1:0.630578 2:0.652227 3:0.657462 4:0.673304 5:0.686004 6:0.988614 7:0.733975 
1 0 0 0 0 0 1:0.62528 2:0.644334 3:0.648492 4:0.663072 5:0.675085 6:0.971945 7:0.664444 
1 0 0 0 0 0 1:0.616352 2:0.632716 3:0.63518 4:0.649677 5:0.659437 6:1.01063 7:0.607839 
1 1 0 0 0 0 1:0.606502 2:0.62517 3:0.629337 4:0.643661 5:0.654461 6:0.914139 7:0.597443 
1 0 0 0 0 0 1:0.628548 2:0.64814 3:0.651461 4:0.666574 5:0.678762 6:0.949287 7:0.780945 
1 0 0 0 0 0 1:0.617524 2:0.634722 3:0.638891 4:0.654184 5:0.667016 6:0.906585 7:0.653868 
1 0 0 0 0 0 1:0.611006 2:0.627885 3:0.628563 4:0.640298 5:0.647197 6:1.102875 7:0.523327 
1 1 0 0 0 0 1:0.591905 2:0.606566 3:0.605537 4:0.611636 5:0.621043 6:1.064636 7:0.461689 
1 1 0 0 0 0 1:0.605788 2:0.623407 3:0.626255 4:0.641337 5:0.652307 6:0.885996 7:0.619415 
1 0 0 0 0 0 1:0.628131 2:0.647998 3:0.650973 4:0.665221 5:0.676262 6:0.934506 7:0.706035 
1 0 0 0 0 0 1:0.617656 2:0.636319 3:0.639363 4:0.652696 5:0.663514 6:0.964653 7:0.611618 
1 0 0 0 0 0 1:0.608844 2:0.626007 3:0.628715 4:0.64335 5:0.651603 6:1.013704 7:0.539487 
1 1 0 0 0 0 1:0.605646 2:0.623478 3:0.627159 4:0.641113 5:0.652469 6:0.892508 7:0.619968 
1 0 0 0 0 0 1:0.628377 2:0.648153 3:0.651176 4:0.666461 5:0.678905 6:0.949365 7:0.725601 
1 0 0 0 0 0 1:0.612771 2:0.630844 3:0.635096 4:0.656979 5:0.67157 6:0.957721 7:0.703118 
1 0 0 0 0 0 1:0.61455 2:0.632059 3:0.636668 4:0.659131 5:0.672889 6:0.931016 7:0.693251 
1 0 0 0 0 0 1:0.628663 2:0.645874 3:0.65034 4:0.673767 5:0.690361 6:0.994902 7:0.760822 
1 0 0 0 0 0 1:0.607558 2:0.623064 3:0.627693 4:0.650759 5:0.667412 6:0.90209 7:0.733863 
1 0 0 0 0 0 1:0.605733 2:0.619739 3:0.623908 4:0.642152 5:0.660964 6:1.012208 7:0.711934 
1 0 0 0 0 0 1:0.596534 2:0.612308 3:0.61508 4:0.629876 5:0.644746 6:0.977337 7:0.612009 
1 0 0 0 0 0 1:0.623024 2:0.638434 3:0.643912 4:0.66424 5:0.683033 6:1.012888 7:0.743825 
1 0 0 0 0 0 1:0.607006 2:0.620624 3:0.625346 4:0.643788 5:0.663823 6:1.072473 7:0.75973 
1 0 0 0 0 0 1:0.621958 2:0.635631 3:0.641887 4:0.661037 5:0.678797 6:0.997938 7:0.771546 
1 0 0 0 0 0 1:0.606289 2:0.620604 3:0.624446 4:0.642483 5:0.659847 6:1.007835 7:0.718435 
1 0 0 0 0 0 1:0.629772 2:0.646295 3:0.65023 4:0.668775 5:0.683267 6:0.999222 7:0.733511 
1 0 0 0 0 0 1:0.625836 2:0.643208 3:0.647716 4:0.665692 5:0.682367 6:0.945814 7:0.717293 
1 0 0 0 0 0 1:0.631195 2:0.650778 3:0.653479 4:0.670636 5:0.685627 6:0.975393 7:0.7423 
1 0 0 0 0 0 1:0.624622 2:0.643064 3:0.646498 4:0.662017 5:0.674571 6:0.948765 7:0.72938 
1 0 0 0 0 0 1:0.618321 2:0.633299 3:0.638479 4:0.654559 5:0.671167 6:0.996771 7:0.675692 
1 0 0 0 0 0 1:0.627305 2:0.645026 3:0.649988 4:0.668723 5:0.685804 6:0.913142 7:0.69634 
1 0 0 0 0 0 1:0.628664 2:0.649503 3:0.652773 4:0.671997 5:0.685795 6:0.999334 7:0.78186 
1 0 0 0 0 0 1:0.632326 2:0.650963 3:0.65592 4:0.675254 5:0.691202 6:0.978677 7:0.75 
1 0 0 0 0 0 1:0.627128 2:0.645072 3:0.64871 4:0.664271 5:0.678522 6:1.004028 7:0.746959 
1 0 0 0 0 0 1:0.611272 2:0.626559 3:0.631419 4:0.645577 5:0.662052 6:1.026646 7:0.644177 
1 0 0 0 0 0 1:0.626098 2:0.643595 3:0.649694 4:0.669527 5:0.68576 6:0.875155 7:0.708496 
1 0 0 0 0 0 1:0.617957 2:0.634526 3:0.640129 4:0.658476 5:0.671437 6:1.047362 7:0.664512 
1 0 0 0 0 0 1:0.623466 2:0.640042 3:0.642814 4:0.658236 5:0.673062 6:1.041506 7:0.705722 
1 0 0 0 0 0 1:0.619322 2:0.637361 3:0.638181 4:0.654934 5:0.666423 6:1.015243 7:0.659768 
1 0 0 0 0 0 1:0.622431 2:0.642357 3:0.644599 4:0.661239 5:0.672985 6:1.026278 7:0.629333 
1 0 0 0 0 0 1:0.630482 2:0.648626 3:0.651052 4:0.669506 5:0.680954 6:0.984769 7:0.678724 
1 0 0 0 0 0 1:0.626094 2:0.643836 3:0.648048 4:0.667315 5:0.684812 6:1.005379 7:0.750048 
1 0 0 0 0 0 1:0.624234 2:0.641253 3:0.641726 4:0.656778 5:0.668895 6:1.027495 7:0.64113 
1 0 0 0 0 0 1:0.621062 2:0.639765 3:0.64241 4:0.660174 5:0.674388 6:0.937197 7:0.695099 
1 0 0 0 0 0 1:0.624495 2:0.642462 3:0.646435 4:0.665973 5:0.682656 6:0.976806 7:0.750249 
1 0 0 0 0 0 1:0.64146 2:0.662577 3:0.666192 4:0.683144 5:0.69706 6:0.956836 7:0.781048 
1 1 0 0 0 0 1:0.612974 2:0.632795 3:0.632031 4:0.65157 5:0.657781 6:0.876039 7:0.646807 
1 0 0 0 0 0 1:0.631786 2:0.654836 3:0.65651 4:0.674056 5:0.682372 6:0.916975 7:0.646168 
1 0 0 0 0 0 1:0.619617 2:0.637532 3:0.638774 4:0.662167 5:0.675824 6:0.975754 7:0.821404 
1 0 0 0 0 0 1:0.633032 2:0.653251 3:0.655815 4:0.676576 5:0.688679 6:0.996728 7:0.702988 
1 0 0 0 0 0 1:0.618119 2:0.637979 3:0.639286 4:0.653822 5:0.665214 6:1.038411 7:0.702927 
1 0 0 0 0 0 1:0.603678 2:0.620516 3:0.618863 4:0.63005 5:0.639295 6:1.042645 7:0.520382 
1 0 0 0 0 0 1:0.617401 2:0.638921 3:0.638242 4:0.649446 5:0.657927 6:1.026756 7:0.633951 
1 0 0 0 0 0 1:0.628074 2:0.648608 3:0.652629 4:0.671741 5:0.682265 6:0.998544 7:0.638922 
1 0 0 0 0 0 1:0.622507 2:0.642703 3:0.64172 4:0.650506 5:0.66052 6:0.968039 7:0.545848 
1 0 0 0 0 0 1:0.632714 2:0.652202 3:0.657048 4:0.678917 5:0.692438 6:0.956912 7:0.749337 
1 0 0 0 0 0 1:0.612839 2:0.625223 3:0.634113 4:0.659749 5:0.677431 6:1.051814 7:0.764769 
1 0 0 0 0 0 1:0.616073 2:0.633758 3:0.636987 4:0.656686 5:0.670754 6:0.928175 7:0.689744 
1 0 0 0 0 0 1:0.613591 2:0.630108 3:0.633852 4:0.652601 5:0.668885 6:1.014233 7:0.699644 
1 0 0 0 0 0 1:0.614874 2:0.629571 3:0.633733 4:0.656983 5:0.672244 6:0.957936 7:0.64848 
1 0 0 0 0 0 1:0.61829 2:0.636171 3:0.639446 4:0.659072 5:0.672124 6:1.04271 7:0.615179 
1 0 0 0 0 0 1:0.619077 2:0.636794 3:0.640816 4:0.658906 5:0.674528 6:1.002798 7:0.729832 
1 0 0 0 0 0 1:0.622639 2:0.640152 3:0.646426 4:0.663779 5:0.678875 6:1.017124 7:0.700384 
1 0 0 0 0 0 1:0.624767 2:0.641325 3:0.64864 4:0.669549 5:0.686656 6:0.990469 7:0.754863 
1 0 0 0 0 0 1:0.613564 2:0.628247 3:0.635136 4:0.657086 5:0.673367 6:1.059716 7:0.683006 
1 0 0 0 0 0 1:0.63428 2:0.652811 3:0.659229 4:0.678712 5:0.69912 6:0.959833 7:0.807536 
1 0 0 0 0 0 1:0.630266 2:0.649398 3:0.654144 4:0.674153 5:0.692107 6:0.89926 7:0.692886 
1 0 0 0 0 0 1:0.629588 2:0.649765 3:0.652195 4:0.670025 5:0.685364 6:0.952888 7:0.637484 
1 0 0 0 0 0 1:0.616692 2:0.63498 3:0.637377 4:0.651796 5:0.665775 6:1.018433 7:0.610066 
1 0 0 0 0 0 1:0.620064 2:0.63692 3:0.639051 4:0.651111 5:0.666154 6:1.032976 7:0.693541 
1 0 0 0 0 0 1:0.610893 2:0.62836 3:0.631832 4:0.64691 5:0.661002 6:1.020282 7:0.610604 
1 0 0 0 0 0 1:0.612706 2:0.628586 3:0.630597 4:0.645097 5:0.662204 6:1.040738 7:0.686911 
1 0 0 0 0 0 1:0.608521 2:0.626496 3:0.629254 4:0.644603 5:0.658712 6:1.041178 7:0.590583 
1 0 0 0 0 0 1:0.636409 2:0.658553 3:0.661816 4:0.679034 5:0.69495 6:0.964703 7:0.818667 
1 0 0 0 0 0 1:0.631218 2:0.649902 3:0.653797 4:0.673233 5:0.689872 6:1.003885 7:0.738033 
1 0 0 0 0 0 1:0.63038 2:0.652122 3:0.655145 4:0.670567 5:0.684426 6:0.904532 7:0.703247 
1 0 0 0 0 0 1:0.623128 2:0.643297 3:0.647665 4:0.665116 5:0.677442 6:0.928508 7:0.659559 
1 0 0 0 0 0 1:0.633709 2:0.654432 3:0.658145 4:0.67798 5:0.694235 6:0.960331 7:0.75501 
1 0 0 0 0 0 1:0.623419 2:0.64126 3:0.646438 4:0.666765 5:0.680207 6:1.008638 7:0.682486 
1 0 0 0 0 0 1:0.621556 2:0.639182 3:0.640981 4:0.658818 5:0.671092 6:0.981712 7:0.702995 
1 0 0 0 0 0 1:0.608809 2:0.624976 3:0.629636 4:0.652258 5:0.667169 6:0.899502 7:0.693625 
1 0 0 0 0 0 1:0.617094 2:0.635485 3:0.641301 4:0.659323 5:0.671709 6:0.958148 7:0.682576 
1 0 0 0 0 0 1:0.619075 2:0.635527 3:0.637565 4:0.6536 5:0.666741 6:1.076853 7:0.626815 
1 1 0 0 0 0 1:0.605538 2:0.622887 3:0.628192 4:0.645621 5:0.657622 6:0.918516 7:0.597443 
1 0 0 0 0 0 1:0.607537 2:0.623103 3:0.627103 4:0.647244 5:0.660397 6:1.078818 7:0.646685 
1 0 0 0 0 0 1:0.612136 2:0.628532 3:0.634412 4:0.65341 5:0.668577 6:1.073913 7:0.660439 
1 0 0 0 0 0 1:0.612072 2:0.629249 3:0.633332 4:0.648192 5:0.660448 6:1.088599 7:0.607243 
1 0 0 0 0 0 1:0.605342 2:0.622822 3:0.628164 4:0.643301 5:0.656252 6:1.094258 7:0.567108 
1 0 0 0 0 0 1:0.608424 2:0.626037 3:0.631975 4:0.649643 5:0.661847 6:1.047889 7:0.588617 
1 0 0 0 0 0 1:0.60766 2:0.627235 3:0.628274 4:0.636446 5:0.647355 6:1.046286 7:0.525725 
1 1 0 0 0 0 1:0.612099 2:0.631577 3:0.633845 4:0.646439 5:0.658054 6:0.920234 7:0.588981 
1 0 0 0 0 0 1:0.612003 2:0.63084 3:0.63754 4:0.659988 5:0.672105 6:1.052423 7:0.65682 
1 0 0 0 0 0 1:0.621732 2:0.639153 3:0.641448 4:0.655719 5:0.670493 6:1.030999 7:0.648132 
1 0 0 0 0 0 1:0.608677 2:0.627207 3:0.630627 4:0.644965 5:0.658332 6:1.005694 7:0.569351 
1 0 0 0 0 0 1:0.619841 2:0.637355 3:0.639231 4:0.654698 5:0.671621 6:1.033961 7:0.720417 
1 0 0 0 0 0 1:0.617947 2:0.637424 3:0.642325 4:0.660723 5:0.674464 6:1.014743 7:0.620055 
1 0 0 0 0 0 1:0.617219 2:0.636244 3:0.639359 4:0.658136 5:0.670695 6:1.073815 7:0.613641 
1 0 0 0 0 0 1:0.62229 2:0.639797 3:0.64183 4:0.657216 5:0.669777 6:1.031161 7:0.686606 
1 0 0 0 0 0 1:0.6176 2:0.638575 3:0.642793 4:0.657794 5:0.66797 6:0.988407 7:0.582418 
1 0 0 0 0 0 1:0.620366 2:0.638232 3:0.639242 4:0.656794 5:0.669729 6:1.025453 7:0.656774 
1 0 0 0 0 0 1:0.620314 2:0.640454 3:0.643632 4:0.659302 5:0.670418 6:0.951918 7:0.609245 
1 0 0 0 0 0 1:0.621643 2:0.641341 3:0.64487 4:0.662766 5:0.67444 6:0.968168 7:0.635296 
1 0 0 0 0 0 1:0.619205 2:0.631155 3:0.639377 4:0.666797 5:0.686507 6:0.960837 7:0.715604 
1 0 0 0 0 0 1:0.618817 2:0.635783 3:0.640788 4:0.657509 5:0.674021 6:0.936059 7:0.689356 
1 0 0 0 0 0 1:0.629321 2:0.645385 3:0.651617 4:0.672226 5:0.689318 6:0.972912 7:0.730205 
1 0 0 0 0 0 1:0.610211 2:0.622953 3:0.630133 4:0.652031 5:0.670941 6:0.91135 7:0.70376 
1 1 0 0 0 0 1:0.622967 2:0.641379 3:0.644649 4:0.659089 5:0.673202 6:0.820564 7:0.648587 
1 0 0 0 0 0 1:0.626466 2:0.642599 3:0.647529 4:0.662964 5:0.681835 6:0.962571 7:0.749673 
1 1 0 0 0 0 1:0.617417 2:0.636409 3:0.639865 4:0.652579 5:0.664664 6:0.869802 7:0.590655 
1 0 0 0 0 0 1:0.62679 2:0.6425 3:0.648678 4:0.671225 5:0.689493 6:0.961606 7:0.810853 
1 0 0 0 0 0 1:0.614521 2:0.631549 3:0.634322 4:0.651702 5:0.664889 6:0.990196 7:0.68513 
1 0 0 0 0 0 1:0.617498 2:0.635769 3:0.639936 4:0.660347 5:0.672077 6:1.050907 7:0.596758 
1 0 0 0 0 0 1:0.614844 2:0.631359 3:0.635353 4:0.654692 5:0.668538 6:0.957893 7:0.663334 
1 0 0 0 0 0 1:0.607364 2:0.624185 3:0.630023 4:0.65014 5:0.664519 6:1.074728 7:0.658047 
1 0 0 0 0 0 1:0.614158 2:0.630545 3:0.633436 4:0.652255 5:0.667813 6:0.982712 7:0.728964 
1 0 0 0 0 0 1:0.625461 2:0.646415 3:0.649046 4:0.663694 5:0.672692 6:0.958471 7:0.629243 
1 1 0 0 0 0 1:0.620141 2:0.641653 3:0.643901 4:0.658935 5:0.665397 6:0.911274 7:0.586228 
1 1 0 0 0 0 1:0.623358 2:0.64233 3:0.644221 4:0.657006 5:0.668978 6:0.860708 7:0.641303 
1 0 0 0 0 0 1:0.628024 2:0.648838 3:0.651026 4:0.663053 5:0.675347 6:0.950824 7:0.787395 
1 0 0 0 0 0 1:0.626096 2:0.646684 3:0.648782 4:0.662037 5:0.671434 6:1.010338 7:0.599506 
1 0 0 0 0 0 1:0.606469 2:0.62325 3:0.622441 4:0.632825 5:0.643398 6:0.989611 7:0.54922 
1 0 0 0 0 0 1:0.62777 2:0.647034 3:0.64915 4:0.663587 5:0.678427 6:0.896628 7:0.69839 
1 0 0 0 0 0 1:0.622337 2:0.642488 3:0.644135 4:0.655921 5:0.664236 6:1.041546 7:0.573893 
1 1 0 0 0 0 1:0.624016 2:0.644393 3:0.647634 4:0.664978 5:0.675593 6:0.85023 7:0.617083 
1 0 0 0 0 0 1:0.624361 2:0.65075 3:0.652316 4:0.662537 5:0.676502 6:0.949736 7:0.880993 
1 0 0 0 0 0 1:0.629319 2:0.65226 3:0.654278 4:0.670729 5:0.682136 6:1.002847 7:0.769676 
1 0 0 0 0 0 1:0.625238 2:0.641419 3:0.647857 4:0.675565 5:0.694792 6:0.96443 7:0.801259 
1 0 0 0 0 0 1:0.619402 2:0.636562 3:0.641015 4:0.66348 5:0.678346 6:1.021236 7:0.734382 
1 0 0 0 0 0 1:0.615247 2:0.631436 3:0.638373 4:0.662047 5:0.679301 6:1.005942 7:0.78424 
1 0 0 0 0 0 1:0.611441 2:0.626249 3:0.632461 4:0.653826 5:0.673186 6:0.982911 7:0.757675 
1 0 0 0 0 0 1:0.611852 2:0.628925 3:0.632318 4:0.648367 5:0.664619 6:1.019031 7:0.693058 
1 0 0 0 0 0 1:0.615985 2:0.631248 3:0.634364 4:0.649166 5:0.664558 6:0.993903 7:0.734787 
1 0 0 0 0 0 1:0.616175 2:0.631554 3:0.635052 4:0.652714 5:0.66782 6:1.064345 7:0.724759 
1 0 0 0 0 0 1:0.630854 2:0.654046 3:0.655169 4:0.664738 5:0.673252 6:0.990882 7:0.570581 
1 0 0 0 0 0 1:0.610498 2:0.623324 3:0.631964 4:0.656854 5:0.675267 6:1.002853 7:0.706004 
1 0 0 0 0 0 1:0.615663 2:0.633896 3:0.63955 4:0.654812 5:0.668336 6:0.984321 7:0.649341 
1 0 0 0 0 0 1:0.612303 2:0.629878 3:0.637285 4:0.655222 5:0.669575 6:0.962445 7:0.634757 
1 0 0 0 0 0 1:0.612979 2:0.629024 3:0.636296 4:0.655561 5:0.671535 6:1.058049 7:0.633806 
1 0 0 0 0 0 1:0.615826 2:0.633181 3:0.637107 4:0.657101 5:0.673225 6:1.049352 7:0.685803 
1 0 0 0 0 0 1:0.607714 2:0.623032 3:0.62745 4:0.644688 5:0.65842 6:1.031836 7:0.644308 
1 0 0 0 0 0 1:0.598871 2:0.614182 3:0.620539 4:0.638971 5:0.652758 6:1.027946 7:0.598483 
1 0 0 0 0 0 1:0.62624 2:0.643154 3:0.649495 4:0.667155 5:0.682936 6:1.000257 7:0.703876 
1 0 0 0 0 0 1:0.61262 2:0.628022 3:0.63323 4:0.651326 5:0.665679 6:1.086173 7:0.645554 
1 0 0 0 0 0 1:0.609365 2:0.6243 3:0.628592 4:0.646134 5:0.661456 6:1.062578 7:0.667282 
1 0 0 0 0 0 1:0.602407 2:0.618299 3:0.62326 4:0.640137 5:0.654326 6:0.957125 7:0.635444 
1 0 0 0 0 0 1:0.615822 2:0.632184 3:0.638204 4:0.656456 5:0.671351 6:0.988082 7:0.667778 
1 0 0 0 0 0 1:0.611871 2:0.627791 3:0.633423 4:0.650142 5:0.664171 6:1.02219 7:0.614362 
1 0 0 0 0 0 1:0.615537 2:0.630958 3:0.634464 4:0.649417 5:0.66334 6:0.991348 7:0.636976 
1 0 0 0 0 0 1:0.597087 2:0.612597 3:0.619046 4:0.635733 5:0.64942 6:0.962664 7:0.60339 
1 0 0 0 0 0 1:0.623468 2:0.640658 3:0.645454 4:0.664005 5:0.677325 6:0.978061 7:0.621967 
1 0 0 0 0 0 1:0.626153 2:0.643719 3:0.649947 4:0.667705 5:0.682814 6:1.005939 7:0.79032 
1 0 0 0 0 0 1:0.626443 2:0.646322 3:0.649541 4:0.662361 5:0.675643 6:1.003687 7:0.674163 
1 0 0 0 0 0 1:0.626878 2:0.643458 3:0.65047 4:0.671703 5:0.687313 6:0.968176 7:0.775737 
1 0 0 0 0 0 1:0.623973 2:0.643656 3:0.648188 4:0.66325 5:0.67645 6:0.91857 7:0.672026 
1 0 0 0 0 0 1:0.62551 2:0.640861 3:0.648365 4:0.668902 5:0.685333 6:0.986505 7:0.679392 
1 0 0 0 0 0 1:0.630079 2:0.648685 3:0.653777 4:0.675693 5:0.69154 6:0.965414 7:0.743097 
1 0 0 0 0 0 1:0.620107 2:0.634566 3:0.643359 4:0.664301 5:0.682683 6:1.011302 7:0.72651 
1 0 0 0 0 0 1:0.624588 2:0.642324 3:0.646982 4:0.664389 5:0.67842 6:1.051611 7:0.65035 
1 0 0 0 0 0 1:0.628124 2:0.644399 3:0.651068 4:0.668118 5:0.683987 6:1.017346 7:0.70966 
1 0 0 0 0 0 1:0.619573 2:0.63787 3:0.644349 4:0.661368 5:0.674297 6:1.012687 7:0.635603 
1 0 0 0 0 0 1:0.622247 2:0.638193 3:0.643934 4:0.661822 5:0.677814 6:1.017772 7:0.678187 
1 0 0 0 0 0 1:0.621123 2:0.638264 3:0.643603 4:0.659034 5:0.675453 6:1.002776 7:0.709043 
1 0 0 0 0 0 1:0.620235 2:0.635379 3:0.63941 4:0.658033 5:0.672137 6:0.982524 7:0.664499 
1 1 0 0 0 0 1:0.621012 2:0.640674 3:0.643239 4:0.65818 5:0.666427 6:0.881097 7:0.579875 
1 0 0 0 0 0 1:0.616286 2:0.635508 3:0.638659 4:0.656497 5:0.667076 6:0.983701 7:0.692074 
1 1 0 0 0 0 1:0.613452 2:0.631905 3:0.631993 4:0.647826 5:0.657113 6:0.885894 7:0.627851 
1 0 0 0 0 0 1:0.604215 2:0.619811 3:0.621186 4:0.635782 5:0.647127 6:1.019189 7:0.543379 
1 1 1 1 1 1 1:0.615821 2:0.63753 3:0.636095 4:0.648048 5:0.652165 6:0.729812 7:0.488983 
1 0 0 0 0 0 1:0.613129 2:0.628531 3:0.632585 4:0.655466 5:0.670657 6:0.933172 7:0.811443 
1 0 0 0 0 0 1:0.630012 2:0.650597 3:0.654216 4:0.670123 5:0.686333 6:0.980225 7:0.76149 
1 0 0 0 0 0 1:0.619228 2:0.636823 3:0.639491 4:0.65572 5:0.671016 6:0.992578 7:0.713058 
1 0 0 0 0 0 1:0.620936 2:0.637667 3:0.639737 4:0.655828 5:0.667736 6:0.985338 7:0.711923 
1 0 0 0 0 0 1:0.633266 2:0.650514 3:0.654565 4:0.672625 5:0.686616 6:0.974456 7:0.746834 
1 0 0 0 0 0 1:0.628824 2:0.647059 3:0.651394 4:0.667644 5:0.678983 6:1.038965 7:0.611554 
1 0 0 0 0 0 1:0.63219 2:0.647765 3:0.650798 4:0.672685 5:0.686853 6:1.011763 7:0.720443 
1 0 0 0 0 0 1:0.624105 2:0.641665 3:0.64416 4:0.661771 5:0.673338 6:1.026168 7:0.619582 
1 0 0 0 0 0 1:0.630485 2:0.64311 3:0.65135 4:0.683667 5:0.702451 6:0.954762 7:0.825344 
1 0 0 0 0 0 1:0.624879 2:0.639287 3:0.644654 4:0.663261 5:0.680009 6:0.882663 7:0.780922 
1 0 0 0 0 0 1:0.622068 2:0.633973 3:0.641886 4:0.666012 5:0.686557 6:0.901801 7:0.82457 
1 0 0 0 0 0 1:0.611434 2:0.62545 3:0.630889 4:0.652781 5:0.67017 6:1.043051 7:0.70056 
1 0 0 0 0 0 1:0.633647 2:0.653912 3:0.659918 4:0.675341 5:0.695093 6:0.865175 7:0.877717 
1 0 0 0 0 0 1:0.626678 2:0.645706 3:0.654085 4:0.673679 5:0.694017 6:0.951907 7:0.869999 
1 0 0 0 0 0 1:0.593332 2:0.602989 3:0.609799 4:0.636998 5:0.653017 6:0.907969 7:0.852544 
1 0 0 0 0 0 1:0.617387 2:0.634785 3:0.637046 4:0.658364 5:0.667423 6:1.004567 7:0.63007 
1 0 0 0 0 0 1:0.595068 2:0.606825 3:0.608827 4:0.633095 5:0.646385 6:0.932892 7:0.703044 
1 0 0 0 0 0 1:0.626251 2:0.64548 3:0.648519 4:0.669347 5:0.681454 6:0.969485 7:0.683873 
1 0 0 0 0 0 1:0.621462 2:0.640283 3:0.643501 4:0.662864 5:0.674426 6:0.996881 7:0.684927 
1 0 0 0 0 0 1:0.628674 2:0.651025 3:0.652444 4:0.66428 5:0.675679 6:0.877751 7:0.721081 
1 1 0 0 0 0 1:0.61018 2:0.630807 3:0.62927 4:0.636879 5:0.637807 6:0.882322 7:0.642935 
1 1 0 0 0 0 1:0.623275 2:0.644873 3:0.647677 4:0.6585 5:0.671641 6:0.80542 7:0.69879 
1 0 0 0 0 0 1:0.630385 2:0.651217 3:0.653644 4:0.665481 5:0.681825 6:0.865003 7:0.90594 
1 0 0 0 0 0 1:0.629172 2:0.650439 3:0.655064 4:0.672289 5:0.683859 6:0.844632 7:0.789208 
1 0 0 0 0 0 1:0.608674 2:0.627228 3:0.633789 4:0.650771 5:0.659683 6:1.012858 7:0.557747 
1 1 0 0 0 0 1:0.620308 2:0.640866 3:0.646564 4:0.665659 5:0.677829 6:0.809098 7:0.738076 
1 0 0 0 0 0 1:0.626575 2:0.645759 3:0.651826 4:0.669653 5:0.686596 6:0.883876 7:0.933918 
1 0 0 0 0 0 1:0.626657 2:0.645257 3:0.648823 4:0.665446 5:0.680779 6:0.950711 7:0.802587 
1 0 0 0 0 0 1:0.620771 2:0.643179 3:0.641385 4:0.650292 5:0.651911 6:1.044464 7:0.437342 
1 1 0 0 0 0 1:0.619675 2:0.63967 3:0.639974 4:0.653838 5:0.666273 6:0.866954 7:0.700741 
1 0 0 0 0 0 1:0.619949 2:0.636231 3:0.640283 4:0.663399 5:0.681498 6:0.942625 7:0.847331 
1 0 0 0 0 0 1:0.634166 2:0.656316 3:0.659469 4:0.676651 5:0.685717 6:0.944287 7:0.688387 
1 0 0 0 0 0 1:0.631949 2:0.652998 3:0.65631 4:0.671668 5:0.683224 6:0.942942 7:0.713319 
1 0 0 0 0 0 1:0.617412 2:0.634079 3:0.640031 4:0.660548 5:0.673478 6:0.974796 7:0.702216 
1 0 0 0 0 0 1:0.617714 2:0.635497 3:0.640781 4:0.659269 5:0.671449 6:0.977566 7:0.658208 
1 0 0 0 0 0 1:0.611238 2:0.626169 3:0.632862 4:0.654762 5:0.670158 6:1.024156 7:0.710213 
1 0 0 0 0 0 1:0.619054 2:0.636497 3:0.642034 4:0.66128 5:0.676109 6:0.951556 7:0.69468 
1 0 0 0 0 0 1:0.612124 2:0.626822 3:0.632004 4:0.653635 5:0.669525 6:1.034883 7:0.712345 
1 1 1 0 0 0 1:0.594263 2:0.608604 3:0.613111 4:0.63317 5:0.642977 6:0.871969 7:0.5879 
1 0 0 0 0 0 1:0.610473 2:0.628912 3:0.631959 4:0.648437 5:0.659284 6:1.036004 7:0.596284 
1 0 0 0 0 0 1:0.625041 2:0.640586 3:0.646968 4:0.669243 5:0.685978 6:0.982462 7:0.814065 
1 0 0 0 0 0 1:0.625399 2:0.644053 3:0.648759 4:0.662976 5:0.678304 6:0.972704 7:0.689714 
1 0 0 0 0 0 1:0.624667 2:0.639951 3:0.646616 4:0.669855 5:0.689239 6:0.987324 7:0.852595 
1 0 0 0 0 0 1:0.61365 2:0.628682 3:0.631722 4:0.647156 5:0.662227 6:1.035287 7:0.643819 
1 0 0 0 0 0 1:0.606339 2:0.624081 3:0.627681 4:0.639557 5:0.651765 6:1.034801 7:0.549335 
1 0 0 0 0 0 1:0.611921 2:0.628103 3:0.631311 4:0.647932 5:0.661877 6:1.008693 7:0.614783 
1 0 0 0 0 0 1:0.615882 2:0.633813 3:0.638284 4:0.653597 5:0.66684 6:1.062085 7:0.572084 
1 0 0 0 0 0 1:0.608714 2:0.625118 3:0.629856 4:0.64518 5:0.659665 6:1.046851 7:0.572233 
1 0 0 0 0 0 1:0.617538 2:0.633897 3:0.636861 4:0.654618 5:0.670221 6:1.056208 7:0.694332 
1 0 0 0 0 0 1:0.600752 2:0.6145 3:0.621412 4:0.643817 5:0.659288 6:1.040861 7:0.639325 
1 0 0 0 0 0 1:0.612621 2:0.628238 3:0.634612 4:0.654581 5:0.671894 6:1.067354 7:0.661061 
1 0 0 0 0 0 1:0.612792 2:0.629664 3:0.632179 4:0.647965 5:0.661046 6:1.010918 7:0.617378 
1 0 0 0 0 0 1:0.606904 2:0.623567 3:0.629166 4:0.646811 5:0.661119 6:0.984648 7:0.612168 
1 0 0 0 0 0 1:0.615763 2:0.632031 3:0.638654 4:0.659882 5:0.676133 6:0.971323 7:0.664291 
1 1 0 0 0 0 1:0.614344 2:0.631464 3:0.634114 4:0.650718 5:0.663521 6:0.880686 7:0.63327 
1 1 0.7043844235421499 0 0 0 1:0.603874 2:0.620893 3:0.626291 4:0.648612 5:0.659996 6:0.896421 7:0.548797 
1 0 0 0 0 0 1:0.624354 2:0.642324 3:0.648564 4:0.67168 5:0.685914 6:0.988451 7:0.664919 
1 0 0 0 0 0 1:0.605334 2:0.624037 3:0.624993 4:0.645036 5:0.653286 6:1.079117 7:0.521872 
1 0 0 0 0 0 1:0.622163 2:0.643286 3:0.645802 4:0.669509 5:0.680512 6:0.972501 7:0.738336 
1 0 0 0 0 0 1:0.596667 2:0.605011 3:0.617775 4:0.654433 5:0.675911 6:1.071755 7:0.763085 
1 0 0 0 0 0 1:0.625477 2:0.639992 3:0.644242 4:0.664521 5:0.68265 6:1.013123 7:0.723222 
1 0 0 0 0 0 1:0.626928 2:0.643986 3:0.649473 4:0.66837 5:0.684564 6:0.93413 7:0.682917 
1 0 0 0 0 0 1:0.630975 2:0.648334 3:0.652682 4:0.670398 5:0.685921 6:0.957869 7:0.741865 
1 0 0 0 0 0 1:0.627403 2:0.645338 3:0.649729 4:0.66723 5:0.68334 6:0.995692 7:0.764474 
1 0 0 0 0 0 1:0.623305 2:0.639223 3:0.645534 4:0.667335 5:0.686956 6:0.980376 7:0.783073 
1 0 0 0 0 0 1:0.627818 2:0.645788 3:0.651833 4:0.671748 5:0.690184 6:0.961183 7:0.77874 
1 0 0 0 0 0 1:0.624482 2:0.641884 3:0.647439 4:0.668134 5:0.683325 6:0.905987 7:0.723917 
1 0 0 0 0 0 1:0.63071 2:0.647746 3:0.65355 4:0.675507 5:0.693798 6:0.93753 7:0.816579 
1 0 0 0 0 0 1:0.617645 2:0.629996 3:0.638297 4:0.663366 5:0.684511 6:0.996291 7:0.872425 
1 0 0 0 0 0 1:0.626942 2:0.644152 3:0.650917 4:0.672902 5:0.692219 6:0.963627 7:0.787593 
1 1 1 0 0 0 1:0.605902 2:0.623193 3:0.627238 4:0.642988 5:0.653916 6:0.870016 7:0.580729 
1 1 0 0 0 0 1:0.594974 2:0.612002 3:0.616141 4:0.631015 5:0.639971 6:0.96698 7:0.488459 
1 1 0 0 0 0 1:0.596591 2:0.612194 3:0.616348 4:0.630314 5:0.639712 6:0.95895 7:0.535821 
1 1 1 1 0.8617005448375052 0 1:0.595181 2:0.613117 3:0.61639 4:0.628472 5:0.636315 6:0.87764 7:0.459582 
1 1 0 0 0 0 1:0.611571 2:0.628953 3:0.632336 4:0.64697 5:0.660142 6:0.909831 7:0.63573 
1 1 1 1 0 0 1:0.597465 2:0.613186 3:0.618002 4:0.633779 5:0.644334 6:0.845077 7:0.529986 
1 0 0 0 0 0 1:0.59303 2:0.608012 3:0.611587 4:0.626594 5:0.637705 6:1.015678 7:0.549465 
1 1 1 1 1 1 1:0.599042 2:0.616875 3:0.62097 4:0.635115 5:0.643233 6:0.849236 7:0.471325 
1 1 0 0 0 0 1:0.608552 2:0.625548 3:0.629908 4:0.645799 5:0.656953 6:0.884989 7:0.567793 
1 0 0 0 0 0 1:0.611442 2:0.628704 3:0.631452 4:0.642108 5:0.652473 6:1.00939 7:0.57651 
1 0 0 0 0 0 1:0.608871 2:0.626125 3:0.63039 4:0.643281 5:0.655544 6:1.113635 7:0.617466 
1 0 0 0 0 0 1:0.622831 2:0.63987 3:0.643805 4:0.658156 5:0.669687 6:1.025794 7:0.655423 
1 0 0 0 0 0 1:0.608287 2:0.624133 3:0.629956 4:0.648797 5:0.6624 6:1.082702 7:0.660632 
1 0 0 0 0 0 1:0.609536 2:0.624116 3:0.62664 4:0.636643 5:0.651859 6:1.043474 7:0.627975 
1 0 0 0 0 0 1:0.609192 2:0.626978 3:0.629579 4:0.642923 5:0.653825 6:1.09455 7:0.568756 
1 0 0 0 0 0 1:0.621967 2:0.639394 3:0.641673 4:0.661064 5:0.67489 6:1.036254 7:0.73781 
1 0 0 0 0 0 1:0.617467 2:0.637884 3:0.640158 4:0.655559 5:0.666342 6:0.950023 7:0.593067 
1 0 0 0 0 0 1:0.621701 2:0.64076 3:0.643456 4:0.65941 5:0.671607 6:1.011818 7:0.621213 
1 0 0 0 0 0 1:0.624582 2:0.644602 3:0.646947 4:0.663394 5:0.674354 6:1.006097 7:0.641229 
1 1 1 0 0 0 1:0.619829 2:0.638306 3:0.641788 4:0.660195 5:0.672538 6:0.800536 7:0.66074 
1 1 0 0 0 0 1:0.606772 2:0.6249 3:0.62771 4:0.649172 5:0.65983 6:0.934942 7:0.561852 
1 0 0 0 0 0 1:0.612978 2:0.631434 3:0.636181 4:0.65625 5:0.670063 6:0.841959 7:0.763311 
1 0 0 0 0 0 1:0.618684 2:0.635735 3:0.642133 4:0.657099 5:0.674203 6:0.974516 7:0.661097 
1 0 0 0 0 0 1:0.617394 2:0.635011 3:0.638803 4:0.652584 5:0.665621 6:1.036141 7:0.53308 
1 1 1 0 0 0 1:0.617471 2:0.636712 3:0.641009 4:0.653647 5:0.667968 6:0.839516 7:0.57615 
1 0 0 0 0 0 1:0.618956 2:0.637873 3:0.643431 4:0.657897 5:0.674309 6:0.897909 7:0.765838 
1 1 0 0 0 0 1:0.618477 2:0.635944 3:0.641246 4:0.661557 5:0.677437 6:0.865978 7:0.691322 
1 1 0 0 0 0 1:0.604437 2:0.621548 3:0.626706 4:0.645704 5:0.65775 6:0.936534 7:0.551189 
1 0 0 0 0 0 1:0.618863 2:0.636119 3:0.643132 4:0.666182 5:0.681739 6:0.942191 7:0.758056 
0.8938392886104165 0 0 0 0 0 1:0.623212 2:0.639981 3:0.644283 4:0.662463 5:0.678276 6:1.039296 7:0.724393 
1 0 0 0 0 0 1:0.621193 2:0.637292 3:0.641353 4:0.664565 5:0.680564 6:0.998188 7:0.764421 
1 0 0 0 0 0 1:0.625679 2:0.642344 3:0.645523 4:0.667967 5:0.683802 6:0.997858 7:0.722757 
1 0 0 0 0 0 1:0.617777 2:0.632905 3:0.637266 4:0.660963 5:0.680067 6:0.987047 7:0.807266 
1 0 0 0 0 0 1:0.621248 2:0.638305 3:0.643016 4:0.666819 5:0.683332 6:1.020452 7:0.715612 
1 0 0 0 0 0 1:0.624576 2:0.640586 3:0.645752 4:0.669276 5:0.687066 6:0.994783 7:0.812816 
1 0 0 0 0 0 1:0.621501 2:0.638051 3:0.643471 4:0.667585 5:0.683685 6:0.999603 7:0.74518 
1 0 0 0 0 0 1:0.626031 2:0.641053 3:0.646456 4:0.667314 5:0.68395 6:0.974538 7:0.813976 
1 0 0 0 0 0 1:0.627052 2:0.643602 3:0.647793 4:0.667391 5:0.685206 6:0.899337 7:0.805141 
1 0 0 0 0 0 1:0.634425 2:0.654913 3:0.657545 4:0.670295 5:0.683342 6:0.964529 7:0.633785 
1 0 0 0 0 0 1:0.626717 2:0.642391 3:0.645919 4:0.668016 5:0.687008 6:0.931897 7:0.874689 
1 0 0 0 0 0 1:0.598089 2:0.607937 3:0.618406 4:0.64593 5:0.664737 6:1.041521 7:0.660878 
1 0 0 0 0 0 1:0.614974 2:0.630197 3:0.637281 4:0.658713 5:0.6749 6:0.999725 7:0.706094 
1 0 0 0 0 0 1:0.62614 2:0.642017 3:0.646781 4:0.668925 5:0.686429 6:0.947735 7:0.781272 
1 0 0 0 0 0 1:0.610002 2:0.626773 3:0.63177 4:0.652622 5:0.66383 6:0.9721 7:0.63507 
1 1 0 0 0 0 1:0.620058 2:0.638714 3:0.640686 4:0.658636 5:0.671946 6:0.811857 7:0.683626 
1 0 0 0 0 0 1:0.621546 2:0.636931 3:0.643889 4:0.671988 5:0.690168 6:0.984253 7:0.877423 
1 0 0 0 0 0 1:0.626671 2:0.642985 3:0.647649 4:0.669001 5:0.685542 6:0.958406 7:0.747736 
1 0 0 0 0 0 1:0.616524 2:0.632656 3:0.637857 4:0.656536 5:0.669919 6:0.953535 7:0.65905 
1 1 0 0 0 0 1:0.613264 2:0.632141 3:0.634096 4:0.646555 5:0.65801 6:0.915232 7:0.592026 
1 0 0 0 0 0 1:0.622086 2:0.643249 3:0.646637 4:0.660855 5:0.672198 6:0.956678 7:0.632006 
1 1 0 0 0 0 1:0.61357 2:0.631888 3:0.632914 4:0.647244 5:0.659137 6:0.956619 7:0.560254 
1 0 0 0 0 0 1:0.614452 2:0.632749 3:0.633094 4:0.647959 5:0.659082 6:0.978373 7:0.57087 
1 0 0 0 0 0 1:0.626733 2:0.642152 3:0.645604 4:0.667747 5:0.684468 6:0.984214 7:0.74463 
1 0 0 0 0 0 1:0.611595 2:0.628957 3:0.631212 4:0.648772 5:0.660482 6:1.043962 7:0.598531 
1 0 0 0 0 0 1:0.622041 2:0.637042 3:0.639344 4:0.655717 5:0.667551 6:0.99474 7:0.66044 
1 0 0 0 0 0 1:0.619518 2:0.636323 3:0.640264 4:0.65765 5:0.669591 6:1.025937 7:0.679457 
1 0 0 0 0 0 1:0.612062 2:0.633501 3:0.636088 4:0.644165 5:0.65525 6:1.02587 7:0.519475 
1 1 0 0 0 0 1:0.635205 2:0.659763 3:0.65645 4:0.659002 5:0.669962 6:0.949742 7:0.527029 
1 0 0 0 0 0 1:0.630137 2:0.653023 3:0.653218 4:0.661559 5:0.673231 6:1.034861 7:0.591773 
1 0 0 0 0 0 1:0.618854 2:0.638698 3:0.645209 4:0.662381 5:0.676061 6:1.030961 7:0.68508 
1 0 0 0 0 0 1:0.620292 2:0.640398 3:0.646092 4:0.663027 5:0.676851 6:0.975201 7:0.702821 
1 0 0 0 0 0 1:0.624002 2:0.638519 3:0.645666 4:0.667379 5:0.684372 6:0.979037 7:0.793426 
1 0 0 0 0 0 1:0.619049 2:0.635357 3:0.639044 4:0.656726 5:0.670981 6:1.016717 7:0.698416 
1 0 0 0 0 0 1:0.620414 2:0.637743 3:0.640355 4:0.655099 5:0.670586 6:1.011817 7:0.616713 
1 1 0 0 0 0 1:0.608683 2:0.628157 3:0.629389 4:0.641167 5:0.653623 6:0.927532 7:0.542629 
1 0 0 0 0 0 1:0.614409 2:0.631371 3:0.636208 4:0.654309 5:0.670622 6:1.045646 7:0.624774 
1 0 0 0 0 0 1:0.608872 2:0.624737 3:0.627943 4:0.642822 5:0.658685 6:1.048697 7:0.564754 
1 0 0 0 0 0 1:0.606463 2:0.624791 3:0.627476 4:0.643769 5:0.658523 6:1.042872 7:0.577665 
1 0 0 0 0 0 1:0.625929 2:0.643102 3:0.648038 4:0.667009 5:0.68581 6:1.021498 7:0.688338 
1 0 0 0 0 0 1:0.625294 2:0.644984 3:0.649872 4:0.668053 5:0.683662 6:0.933295 7:0.678921 
1 0 0 0 0 0 1:0.623086 2:0.642652 3:0.648814 4:0.666851 5:0.681357 6:0.932519 7:0.657623 
1 0 0 0 0 0 1:0.616726 2:0.636442 3:0.63905 4:0.651919 5:0.664208 6:0.97958 7:0.613662 
1 0 0 0 0 0 1:0.621762 2:0.637865 3:0.642912 4:0.65961 5:0.67757 6:1.013961 7:0.784208 
1 0.5417257369428818 0 0 0 0 1:0.615807 2:0.637811 3:0.637856 4:0.643911 5:0.653881 6:0.943872 7:0.58909 
1 0 0 0 0 0 1:0.626495 2:0.64565 3:0.649382 4:0.664959 5:0.679279 6:1.024797 7:0.712899 
1 0 0 0 0 0 1:0.618748 2:0.63833 3:0.643183 4:0.659255 5:0.671315 6:1.061431 7:0.66064 
1 0 0 0 0 0 1:0.622836 2:0.639061 3:0.64533 4:0.661432 5:0.675361 6:1.020509 7:0.713355 
1 0 0 0 0 0 1:0.629613 2:0.64934 3:0.653201 4:0.66679 5:0.680934 6:0.993795 7:0.731148 
1 0 0 0 0 0 1:0.62271 2:0.63895 3:0.644374 4:0.659026 5:0.673676 6:0.99692 7:0.755238 
1 0 0 0 0 0 1:0.627524 2:0.646152 3:0.651021 4:0.667127 5:0.680952 6:0.905684 7:0.740893 
1 0 0 0 0 0 1:0.619532 2:0.633387 3:0.638465 4:0.65861 5:0.673487 6:0.899897 7:0.700048 
1 0 0 0 0 0 1:0.61017 2:0.625867 3:0.630803 4:0.649602 5:0.665465 6:0.965823 7:0.680552 
1 0 0 0 0 0 1:0.620957 2:0.635902 3:0.640458 4:0.659629 5:0.675991 6:0.916189 7:0.706253 
1 0 0 0 0 0 1:0.612677 2:0.629246 3:0.633252 4:0.650435 5:0.668195 6:1.039215 7:0.697927 
1 0 0 0 0 0 1:0.592007 2:0.60455 3:0.608502 4:0.625821 5:0.639673 6:1.196628 7:0.528755 
1 0 0 0 0 0 1:0.614445 2:0.63259 3:0.636318 4:0.65248 5:0.663037 6:1.077235 7:0.620188 
1 0 0 0 0 0 1:0.607598 2:0.618856 3:0.621756 4:0.636721 5:0.65211 6:1.088436 7:0.622376 
1 0 0 0 0 0 1:0.601277 2:0.615421 3:0.620347 4:0.641107 5:0.652844 6:1.129624 7:0.631905 
1 0 0 0 0 0 1:0.626961 2:0.646162 3:0.649002 4:0.665196 5:0.675269 6:1.019367 7:0.627338 
1 0 0 0 0 0 1:0.619916 2:0.636146 3:0.640417 4:0.656632 5:0.668793 6:0.928856 7:0.67903 
1 0 0 0 0 0 1:0.603055 2:0.62068 3:0.625594 4:0.641173 5:0.650774 6:0.996716 7:0.576225 
1 0 0 0 0 0 1:0.621349 2:0.640081 3:0.64695 4:0.669156 5:0.683265 6:1.023804 7:0.729867 
1 0 0 0 0 0 1:0.619952 2:0.637425 3:0.640809 4:0.663976 5:0.674233 6:0.948754 7:0.650559 
1 0 0 0 0 0 1:0.627134 2:0.645889 3:0.651143 4:0.670622 5:0.684543 6:0.992533 7:0.703679 
1 0 0 0 0 0 1:0.627977 2:0.644109 3:0.650695 4:0.668336 5:0.683636 6:1.016849 7:0.704238 
1 0 0 0 0 0 1:0.628162 2:0.648262 3:0.653282 4:0.670114 5:0.681719 6:0.962446 7:0.676356 
1 0 0 0 0 0 1:0.619764 2:0.63685 3:0.639412 4:0.652644 5:0.667607 6:1.024356 7:0.693099 
1 0 0 0 0 0 1:0.615552 2:0.634623 3:0.637862 4:0.652813 5:0.66634 6:1.016383 7:0.654264 
1 0 0 0 0 0 1:0.60737 2:0.626688 3:0.630845 4:0.647036 5:0.656655 6:1.024665 7:0.583261 
1 0 0 0 0 0 1:0.616921 2:0.631565 3:0.633964 4:0.655925 5:0.670973 6:0.95231 7:0.890725 
1 0 0 0 0 0 1:0.618909 2:0.636042 3:0.636757 4:0.653554 5:0.663813 6:1.031175 7:0.746849 
1 0 0 0 0 0 1:0.629946 2:0.649976 3:0.652326 4:0.669619 5:0.683767 6:1.007623 7:0.710974 
1 0 0 0 0 0 1:0.616858 2:0.633223 3:0.642001 4:0.661953 5:0.680406 6:1.017597 7:0.734438 
1 0 0 0 0 0 1:0.613113 2:0.629958 3:0.636181 4:0.653658 5:0.671263 6:0.97274 7:0.747263 
1 0 0 0 0 0 1:0.62268 2:0.640891 3:0.649262 4:0.671645 5:0.687798 6:0.956432 7:0.759302 
1 0 0 0 0 0 1:0.618471 2:0.635145 3:0.643266 4:0.667852 5:0.684431 6:0.932635 7:0.726514 
1 0 0 0 0 0 1:0.627283 2:0.646738 3:0.647397 4:0.65877 5:0.673014 6:1.020051 7:0.654453 
1 0 0 0 0 0 1:0.630572 2:0.649686 3:0.650353 4:0.663784 5:0.677805 6:0.979664 7:0.760408 
1 0 0 0 0 0 1:0.628598 2:0.648434 3:0.64906 4:0.662285 5:0.676541 6:0.9866 7:0.713118 
1 0 0 0 0 0 1:0.630295 2:0.647614 3:0.651053 4:0.66712 5:0.682823 6:0.95223 7:0.797289 
1 0 0 0 0 0 1:0.636367 2:0.655308 3:0.658891 4:0.674722 5:0.690895 6:0.981195 7:0.752542 
1 0 0 0 0 0 1:0.62901 2:0.649352 3:0.651901 4:0.667099 5:0.679633 6:0.892449 7:0.641812 
1 0 0 0 0 0 1:0.620302 2:0.639567 3:0.641832 4:0.656842 5:0.671765 6:1.000312 7:0.634494 
1 0 0 0 0 0 1:0.613469 2:0.627792 3:0.632336 4:0.653855 5:0.670801 6:0.994475 7:0.701917 
1 0 0 0 0 0 1:0.622895 2:0.640435 3:0.645504 4:0.66201 5:0.678453 6:1.042883 7:0.66134 
1 0 0 0 0 0 1:0.629062 2:0.647782 3:0.650726 4:0.663758 5:0.678001 6:0.948969 7:0.710167 
1 0 0 0 0 0 1:0.623909 2:0.639456 3:0.646065 4:0.663707 5:0.681283 6:0.931965 7:0.740145 
1 1 0 0 0 0 1:0.621955 2:0.641154 3:0.642517 4:0.649849 5:0.662916 6:0.905086 7:0.617447 
1 0 0 0 0 0 1:0.621369 2:0.64042 3:0.642457 4:0.648584 5:0.661494 6:0.981672 7:0.59477 
1 0 0 0 0 0 1:0.623193 2:0.639607 3:0.644536 4:0.664079 5:0.678757 6:1.001428 7:0.676177 
1 0 0 0 0 0 1:0.615077 2:0.632114 3:0.637732 4:0.658976 5:0.678623 6:0.9897 7:0.792182 
1 0 0 0 0 0 1:0.618586 2:0.631345 3:0.636864 4:0.652334 5:0.670437 6:0.976845 7:0.714026 
1 0 0 0 0 0 1:0.630499 2:0.649582 3:0.650155 4:0.66768 5:0.683165 6:1.009231 7:0.762502 
1 0 0 0 0 0 1:0.631879 2:0.648083 3:0.650472 4:0.669692 5:0.689706 6:0.978063 7:0.842305 
1 0 0 0 0 0 1:0.631874 2:0.650279 3:0.652459 4:0.669618 5:0.686702 6:0.956695 7:0.747148 
1 0 0 0 0 0 1:0.623322 2:0.640189 3:0.644983 4:0.667667 5:0.684986 6:1.017956 7:0.723307 
1 0 0 0 0 0 1:0.624895 2:0.635512 3:0.6472 4:0.684817 5:0.708078 6:0.876893 7:0.802232 
1 0 0 0 0 0 1:0.617042 2:0.634722 3:0.639544 4:0.660274 5:0.677574 6:1.048073 7:0.720655 
1 0 0 0 0 0 1:0.630566 2:0.653926 3:0.654695 4:0.668961 5:0.679232 6:0.918408 7:0.612371 
1 0 0 0 0 0 1:0.633995 2:0.653971 3:0.657946 4:0.675813 5:0.69229 6:0.97149 7:0.802103 
1 0 0 0 0 0 1:0.620299 2:0.638627 3:0.643378 4:0.662161 5:0.677237 6:0.952317 7:0.657613 
1 0 0 0 0 0 1:0.626026 2:0.642786 3:0.650138 4:0.676544 5:0.693112 6:0.984196 7:0.717482 
1 0 0 0 0 0 1:0.617051 2:0.635191 3:0.639814 4:0.660776 5:0.675978 6:0.985093 7:0.740886 
1 1 0 0 0 0 1:0.632966 2:0.655593 3:0.656509 4:0.67294 5:0.678732 6:0.892706 7:0.569088 
1 0 0 0 0 0 1:0.631935 2:0.649226 3:0.658857 4:0.68491 5:0.703871 6:0.94071 7:0.876191 
1 0 0 0 0 0 1:0.629974 2:0.655978 3:0.657955 4:0.671459 5:0.68024 6:0.892739 7:0.696722 
1 0 0 0 0 0 1:0.631928 2:0.655025 3:0.660896 4:0.676491 5:0.686074 6:0.950296 7:0.729164 
1 0 0 0 0 0 1:0.627116 2:0.646967 3:0.652557 4:0.671296 5:0.685121 6:0.92714 7:0.781207 
1 0 0 0 0 0 1:0.626457 2:0.646945 3:0.654244 4:0.673825 5:0.68983 6:0.979361 7:0.813991 
1 0 0 0 0 0 1:0.629742 2:0.648788 3:0.654252 4:0.672148 5:0.68681 6:0.874045 7:0.705324 
1 0 0 0 0 0 1:0.635789 2:0.658791 3:0.66537 4:0.677936 5:0.693454 6:0.954753 7:0.768565 
1 0 0 0 0 0 1:0.626814 2:0.648791 3:0.653488 4:0.669254 5:0.683978 6:0.936145 7:0.806615 
1 0 0 0 0 0 1:0.627132 2:0.648274 3:0.646735 4:0.657964 5:0.667269 6:0.953008 7:0.623622 
1 1 0 0 0 0 1:0.627008 2:0.649811 3:0.649185 4:0.656659 5:0.664281 6:0.913789 7:0.580173 
1 0 0 0 0 0 1:0.629788 2:0.651084 3:0.651265 4:0.664959 5:0.674607 6:0.904085 7:0.705611 
1 0 0 0 0 0 1:0.629615 2:0.654898 3:0.654739 4:0.664587 5:0.673226 6:0.988893 7:0.850307 
1 0 0 0 0 0 1:0.632391 2:0.65963 3:0.656969 4:0.663673 5:0.672071 6:0.960284 7:0.838779 
1 0 0 0 0 0 1:0.623616 2:0.641467 3:0.647066 4:0.679027 5:0.695294 6:0.961298 7:0.849698 
1 0 0 0 0 0 1:0.627906 2:0.649714 3:0.653059 4:0.670654 5:0.680855 6:0.868692 7:0.724807 
1 0 0 0 0 0 1:0.636565 2:0.657964 3:0.658426 4:0.672699 5:0.683008 6:0.988541 7:0.736133 
1 0 0 0 0 0 1:0.628482 2:0.650663 3:0.655583 4:0.667597 5:0.678808 6:0.91938 7:0.651128 
1 0 0 0 0 0 1:0.634486 2:0.65718 3:0.656927 4:0.667515 5:0.677044 6:0.990531 7:0.643885 
1 0 0 0 0 0 1:0.634532 2:0.654949 3:0.657561 4:0.673985 5:0.686989 6:0.952201 7:0.789693 
1 0 0 0 0 0 1:0.632798 2:0.651473 3:0.657021 4:0.673853 5:0.687055 6:0.941891 7:0.719442 
1 0 0 0 0 0 1:0.630977 2:0.653796 3:0.658406 4:0.677487 5:0.688329 6:0.954239 7:0.742959 
1 0 0 0 0 0 1:0.628886 2:0.646356 3:0.653068 4:0.674766 5:0.692835 6:0.879689 7:0.804843 
1 0 0 0 0 0 1:0.62861 2:0.654149 3:0.656769 4:0.662247 5:0.671772 6:0.933684 7:0.751789 
1 0 0 0 0 0 1:0.623671 2:0.650775 3:0.652379 4:0.656937 5:0.660598 6:0.947296 7:0.647748 
1 0 0 0 0 0 1:0.624732 2:0.653279 3:0.653886 4:0.65996 5:0.663672 6:1.02829 7:0.589442 
1 0 0 0 0 0 1:0.627821 2:0.656551 3:0.65789 4:0.662029 5:0.663719 6:0.985389 7:0.589183 
1 0 0 0 0 0 1:0.634671 2:0.658727 3:0.664046 4:0.674079 5:0.686133 6:0.890643 7:0.751918 
1 0 0 0 0 0 1:0.619322 2:0.64779 3:0.648514 4:0.662733 5:0.667301 6:0.996376 7:0.618956 
1 0 0 0 0 0 1:0.627943 2:0.64656 3:0.655209 4:0.681947 5:0.697975 6:0.985815 7:0.78198 
1 0 0 0 0 0 1:0.636887 2:0.654184 3:0.665249 4:0.689343 5:0.708473 6:0.940927 7:0.851222 
1 0 0 0 0 0 1:0.632335 2:0.65225 3:0.65732 4:0.680417 5:0.694468 6:0.969871 7:0.740908 
1 1 0 0 0 0 1:0.625341 2:0.647404 3:0.652475 4:0.674888 5:0.685702 6:0.821494 7:0.702515 
1 0 0 0 0 0 1:0.624635 2:0.642659 3:0.648661 4:0.669401 5:0.68244 6:1.007795 7:0.736527 
1 0 0 0 0 0 1:0.633795 2:0.657154 3:0.660609 4:0.675027 5:0.682798 6:0.874777 7:0.684083 
1 0 0 0 0 0 1:0.631851 2:0.648883 3:0.656545 4:0.680695 5:0.69963 6:0.899366 7:0.761481 
1 0 0 0 0 0 1:0.633591 2:0.65396 3:0.657778 4:0.674382 5:0.685465 6:0.922752 7:0.688232 
1 0 0 0 0 0 1:0.63378 2:0.655203 3:0.661662 4:0.682088 5:0.694529 6:0.971644 7:0.770869 
1 0 0 0 0 0 1:0.630645 2:0.653743 3:0.661623 4:0.682327 5:0.693986 6:0.974976 7:0.772331 
1 0 0 0 0 0 1:0.625418 2:0.646696 3:0.650026 4:0.66501 5:0.676439 6:0.901938 7:0.650736 
1 1 0 0 0 0 1:0.620495 2:0.64258 3:0.646361 4:0.661804 5:0.671614 6:0.855105 7:0.632367 
1 1 0 0 0 0 1:0.624895 2:0.646198 3:0.649541 4:0.665769 5:0.675247 6:0.848646 7:0.59712 
